tree
version=v4
num_class=1
num_tree_per_iteration=1
label_index=0
max_feature_idx=11
objective=regression
feature_names=Column_0 Column_1 Column_2 Column_3 Column_4 Column_5 Column_6 Column_7 Column_8 Column_9 Column_10 Column_11
feature_infos=[-2.9119616398274424:2.601728041545968] none [-0.086248618693301429:17.616748517469546] [-0.035951997875313738:30.770586944216873] [-0.37323943661971831:3.443661971830986] [0:1] [0:505] none none none [0:9.5050000000000008] [0:906]
tree_sizes=2731 2964 2962 2941 2947 2968 2974 2945 2972 2960 2972 2968 2987 2969 2974 2979 2980 2966 2974 2976 2958 2973 2994 2995 2988 2983 2967 2986 2991 2973 2980 2992 2985 2971 2982 2968 2979 2988 2973 2981 2986 2975 2990 2989 2986 2995 2991 2988 2993 3000 3006 2996 3002 3005 2996 2995 2992 2989 3002 2995 2992 3004 2998 3001 2999 3009 3004 3003 2990 2999 3005 2989 3005 3011 2984 3023 3013 3004 2983 3006 3014 2995 2979 3004 3003 2984 2986 3001 2986 2985 3026 3016 3015 2981 3009 3031 3015 3012 3017 3004 2994 2998 2976 3014 3009 3001 3026 2979 2982 3032 2997 3001 3026 3027 3014 3010 3024 2993 3026 3032 3012 3038 3017 3017 3015 3020 3014 3010 3026 3023 3028 3023 3028 3023 3025 3011 3001 3030 3015 3032 3026 3019 3002 3025 3043 3053 3028 3036 3022 3035 3036 3030 3008 3028 3029 3007 3026 3021 3023 3027 3015 3029 3021 3038 3029 3027 3000 3027 3014 2999 3038 3038 3022 3025 2988 3032 3032 3058 3043 3041 3033 3025 3008 3021 3035 3038 3030 3020 3035 3036 3035 3050 3038 3046 3039 3043 3047 3050 3026 3033 3032 3065 3046 3028 3030 3044 3031 3034 3034 3031 3044 3041 3033 3035 3028 3057 3027 3014 3021 3016 3024 3058 3014 3051 3036 3072 3052 3038 3022 3056 2994 3036 3027 3029 3027 3040 3044 3021 3025 3029 3053 3019 3030 3032 3048 3040 3048 3051 3026 2968 3028 3054 3046 3036 3004 3035 3051 3050 3040 3059 2997 3042 3045 3041 3051 3053 3043 2988 3049 3034 2992 3060 3006 3071 3045 3023 3000 3055 3025 3056 3057 3018 3074 3062 3033 3079 3031 3063 3034 3041 3055 3040 3040 3027 3054 3053 3034 3022 3012 2978 3064 3010 3057 3068 3033 3067 3038 3029 3047 3061 3038 3043 3067 3046 3015 3043 3054 3058 3043 3049 3066 3018 3035 3057 3055 3057 3024 3013 3053 3024 3022 3041 3010 3043 3033 3025 3012 3034 3060 3001 3048 3048 3062 3037 3043 3034 3042 3036 3038 3034 3059 3069 3034 3057 3051 3024 3045 3056 3006 3013 3009 3025 3011 3057 3019 3021 3019 3062 3007 3025 3071 3076 3041 3011 3063 3056 3050 3018 3057 3028 3018 3049 3061 3056 3037 3028 3036 3067 3042 3041 3030 3044 3077 3046 2981 3023 3038 3068 3081 3048 2991 3039 3059 3024 2979 3062 3017 3057 3024 3048 3006 3071 3050 3050 3035 3039 3040 3065 3047 3041 3045 2996 3047 3033 3056 3023 3034 2996 3039 3025 3069 3025 3026 3003 3061 2981 3053 3046 3046 3033 3006 3049 3025 3035 3030 3047 3013 3034 3049 3011 3059 3061 3017 3052 3050 3035 3056 3009 3030 2991 3029 3033 3033 3060 3050 3011 3064 3037 2978 3059 3001 3031 3067 3071 3047 3021 2989 3062 3054 2979 3036 3029 3034 3052 2992 3012 3019 3030 2977 3066 3027 3021 2977 2979 3058 3043 3058 3020 3008 3035

Tree=0
num_leaves=31
num_cat=0
split_feature=6 2 11 0 0 2 3 0 0 0 2 0 2 3 6 2 2 0 3 0 0 6 6 3 0 3 0 3 0 3
split_gain=280.423 62.8955 47.1325 22.7601 18.4296 14.1192 12.6437 7.82185 9.5601 5.51019 4.40361 4.27832 3.87981 3.70714 3.14686 3.40334 3.07829 2.82455 2.55696 2.40002 1.73113 1.69369 1.67601 1.40899 1.30916 1.13066 1.11502 0.963275 0.899028 0.801776
threshold=0.7014585000000001 -0.086203872707162552 0.0013755000000000002 -0.58818439565606073 -0.17068388023433842 -0.086203589381049453 -0.035948104554443014 -0.61544807522426703 -0.073747994903644989 -0.54825368206205105 -0.086114077869039768 -0.61544807522426703 -0.086149659720899538 -0.035910769477446973 4.8503515000000013 1.0000000180025095e-35 1.0000000180025095e-35 1.9576121762302681 -0.030919175091763017 0.41909181655888728 -0.17068388023433842 4.7853120000000002 0.92594700000000019 -0.035344248787254701 -0.25867895071515074 -0.035948104554443014 0.43875457198749784 -0.023940184913488111 -0.2640300688669403 -0.035926733793157022
decision_type=2 2 2 2 2 2 2 2 2 2 2 2 2 2 2 2 2 2 2 2 2 2 2 2 2 2 2 2 2 2
left_child=2 6 -1 10 13 11 -2 -8 -9 -7 -3 -4 17 28 15 -14 20 19 22 -6 -11 -12 -15 24 25 -13 -10 -22 -5 -28
right_child=1 3 5 4 12 9 7 8 26 16 21 23 14 18 -16 -17 -18 -19 -20 -21 27 -23 -24 -25 -26 -27 29 -29 -30 -31
leaf_value=1.1320348407108893 1.1332129401671893 1.1342454762824437 1.1324993551045159 1.136467316876111 1.136130950001357 1.1331033227211025 1.1336971653006442 1.1362405652445899 1.1349601204268471 1.1353177572309308 1.1353815639224156 1.1333284427749486 1.1370506288936084 1.1361800417362418 1.1341688709256039 1.13425689941824 1.1327925516727164 1.1365537192450785 1.1389087116491676 1.1347205603382677 1.1343544417618601 1.1366552993037096 1.1378802502083831 1.1348209385277177 1.1332081488734524 1.1338662568160438 1.1330795038997514 1.1363778720924747 1.1341544251830444 1.134286745652781
leaf_weight=3130 599 327 587 83 210 234 384 582 216 549 415 762 772 65 44 47 71 297 257 290 415 143 945 70 1769 820 69 25 20 265
leaf_count=3130 599 327 587 83 210 234 384 582 216 549 415 762 772 65 44 47 71 297 257 290 415 143 945 70 1769 820 69 25 20 265
internal_value=1.13419 1.13583 1.13301 1.13658 1.137 1.13358 1.13444 1.13493 1.13535 1.13449 1.13517 1.13329 1.13628 1.13785 1.13675 1.13689 1.1348 1.13578 1.138 1.13532 1.13494 1.13571 1.13777 1.13343 1.1334 1.13361 1.1344 1.13447 1.13601 1.13404
internal_weight=14462 6030 8432 3915 3030 5302 2115 1516 1132 1294 885 4008 1660 1370 863 819 1060 797 1267 500 989 558 1010 3421 3351 1582 550 440 103 334
internal_count=14462 6030 8432 3915 3030 5302 2115 1516 1132 1294 885 4008 1660 1370 863 819 1060 797 1267 500 989 558 1010 3421 3351 1582 550 440 103 334
is_linear=0
shrinkage=1


Tree=1
num_leaves=31
num_cat=0
split_feature=6 4 3 11 4 4 3 3 3 4 3 3 4 4 3 3 4 6 4 10 6 10 6 3 11 3 6 4 6 3
split_gain=274.847 87.1399 64.6467 46.1943 24.4255 19.2575 12.3101 10.2339 6.98988 6.46354 6.35641 3.90265 3.59933 2.88095 2.72417 2.07231 1.9988 1.7622 2.4536 1.92703 1.54376 1.54225 1.50538 1.43703 1.67183 1.38826 1.24758 1.14825 1.12034 1.03205
threshold=0.7014585000000001 -0.03873239436619718 -0.035944789281212489 0.0013755000000000002 0.010563380281690142 -0.32042253521126757 -0.035660338838033601 -0.035948104554443014 -0.03572783440072682 0.82042253521126773 -0.035926733793157022 -0.034832268592054828 -0.21478873239436616 -0.2570422535211267 -0.035951912868307824 -0.035905584050086412 0.36267605633802824 2.2516690000000001 -0.20070422535211266 0.012415500000000001 0.63223300000000016 0.50912100000000005 1.2785305000000002 -0.035303530431423404 0.89444050000000008 -0.035923248505914683 0.0096780000000000008 0.49647887323943668 0.45828400000000008 -0.035591007124012718
decision_type=2 2 2 2 2 2 2 2 2 2 2 2 2 2 2 2 2 2 2 2 2 2 2 2 2 2 2 2 2 2
left_child=3 5 14 -1 13 11 10 -6 15 28 -7 22 -12 23 -3 -4 -10 19 -19 -8 29 -14 -2 -5 -25 -24 -11 -17 -9 -15
right_child=1 2 8 4 7 6 17 9 16 26 12 -13 21 20 -16 27 -18 18 -20 -21 -22 -23 25 24 -26 -27 -28 -29 -30 -31
leaf_value=-0.0021292308127359811 -0.0013838482913997138 -0.00086484615079866149 0.0022910771677556721 -0.001668609069251785 -0.00070499456594539647 -0.00074970385082066392 0.0039185636519749392 -0.00013054288416129025 0.0036693124181907998 0.00061120168999015487 0.00041257523888527233 0.00087682215166396988 0.00097873900397064777 -0.0010819266471658463 0.0014471473757889871 0.0027524572485842775 0.0045071868306615298 0.0021462139872328759 0.0037226745307132052 0.0010931549472194156 0.00054705921532766653 0.0020978012402643157 -0.0010825510165943257 -0.0012477007000260912 0.0015398489782722836 -0.00017734389272089054 0.0015000616236176927 0.0037567620315800969 0.0012550009495140349 4.311026800878165e-05
leaf_weight=3130 174 360 270 1303 993 265 28 772 462 228 542 239 232 1136 59 193 849 419 133 193 67 275 217 74 30 791 550 329 63 86
leaf_count=3130 174 360 270 1303 993 265 28 772 462 228 542 239 232 1136 59 193 849 419 133 193 67 275 217 74 30 791 550 329 63 86
internal_value=0 0.00163018 0.00304802 -0.00116579 -0.000596813 0.000610515 0.00122196 9.31919e-05 0.00376269 0.000585207 0.000631749 -0.000286819 0.000981725 -0.00126413 -0.000536637 0.00301562 0.00421298 0.00222373 0.00252847 0.00145726 -0.000920609 0.00158799 -0.000523007 -0.00157805 -0.000433287 -0.000373295 0.00124097 0.00338795 -2.46696e-05 -0.00100194
internal_weight=14462 6030 2522 8432 5302 3508 2087 2606 2103 1613 1314 1421 1049 2696 419 792 1311 773 552 221 1289 507 1182 1407 104 1008 778 522 835 1222
internal_count=14462 6030 2522 8432 5302 3508 2087 2606 2103 1613 1314 1421 1049 2696 419 792 1311 773 552 221 1289 507 1182 1407 104 1008 778 522 835 1222
is_linear=0
shrinkage=0.01


Tree=2
num_leaves=31
num_cat=0
split_feature=6 4 3 11 4 4 3 3 3 4 3 3 4 4 3 3 4 6 4 10 6 10 6 3 11 3 6 4 6 3
split_gain=269.381 85.4063 63.3609 45.275 23.9395 18.8754 12.0656 10.0304 6.84977 6.33506 6.23022 3.82517 3.52766 2.82351 2.67013 2.03056 1.95818 1.72656 2.40434 1.88858 1.51322 1.51125 1.47531 1.40835 1.63873 1.36058 1.22251 1.12472 1.09808 1.01171
threshold=0.7014585000000001 -0.03873239436619718 -0.035944789281212489 0.0013755000000000002 0.010563380281690142 -0.32042253521126757 -0.035660338838033601 -0.035948104554443014 -0.03572783440072682 0.82042253521126773 -0.035926733793157022 -0.034832268592054828 -0.21478873239436616 -0.2570422535211267 -0.035951912868307824 -0.035905584050086412 0.36267605633802824 2.2516690000000001 -0.20070422535211266 0.012415500000000001 0.63223300000000016 0.50912100000000005 1.2785305000000002 -0.035303530431423404 0.89444050000000008 -0.035923248505914683 0.0096780000000000008 0.49647887323943668 0.45828400000000008 -0.035591007124012718
decision_type=2 2 2 2 2 2 2 2 2 2 2 2 2 2 2 2 2 2 2 2 2 2 2 2 2 2 2 2 2 2
left_child=3 5 14 -1 13 11 10 -6 15 28 -7 22 -12 23 -3 -4 -10 19 -19 -8 29 -14 -2 -5 -25 -24 -11 -17 -9 -15
right_child=1 2 8 4 7 6 17 9 16 26 12 -13 21 20 -16 27 -18 18 -20 -21 -22 -23 25 24 -26 -27 -28 -29 -30 -31
leaf_value=-0.0021079392234852308 -0.0013700177402292805 -0.00085620007682793409 0.0022681749061229974 -0.0016519242633323808 -0.0006979453230034449 -0.00074220964911282097 0.0038795173995435452 -0.00012923762847907291 0.0036326271760811039 0.00060509235689605167 0.00040845025288173756 0.00086805761721264058 0.00096895583020503121 -0.0010711083275655028 0.0014327004081656283 0.0027249468717934367 0.0044621201141213877 0.0021247569643062358 0.003685475669347819 0.0010822290468479666 0.00054159679095340269 0.0020768308468563845 -0.0010717304829526942 -0.0012352405271308143 0.0015245016212838136 -0.00017557066822452782 0.0014850637709811316 0.003719205821368224 0.0012424708094016875 4.2679666202952371e-05
leaf_weight=3130 174 360 270 1303 993 265 28 772 462 228 542 239 232 1136 59 193 849 419 133 193 67 275 217 74 30 791 550 329 63 86
leaf_count=3130 174 360 270 1303 993 265 28 772 462 228 542 239 232 1136 59 193 849 419 133 193 67 275 217 74 30 791 550 329 63 86
internal_value=0 0.0016139 0.00301756 -0.00115413 -0.000590841 0.000604422 0.00120977 9.22609e-05 0.00372509 0.000579363 0.000625441 -0.000283959 0.00097193 -0.00125149 -0.000531246 0.0029855 0.00417087 0.00220155 0.00250321 0.00144275 -0.000911388 0.00157214 -0.000517796 -0.00156227 -0.000428855 -0.000369573 0.00122858 0.0033541 -2.44096e-05 -0.000991909
internal_weight=14462 6030 2522 8432 5302 3508 2087 2606 2103 1613 1314 1421 1049 2696 419 792 1311 773 552 221 1289 507 1182 1407 104 1008 778 522 835 1222
internal_count=14462 6030 2522 8432 5302 3508 2087 2606 2103 1613 1314 1421 1049 2696 419 792 1311 773 552 221 1289 507 1182 1407 104 1008 778 522 835 1222
is_linear=0
shrinkage=0.01


Tree=3
num_leaves=31
num_cat=0
split_feature=2 4 11 6 4 6 4 3 6 6 4 3 4 4 3 3 2 4 4 4 2 3 4 4 10 6 6 11 3 6
split_gain=264.792 86.7097 48.2814 41.1476 22.8359 22.1884 15.8073 8.72778 8.58731 6.57138 5.95806 5.44921 5.26677 3.89728 3.78453 3.43932 3.07306 2.69356 2.20142 2.01287 1.839 2.18316 1.52774 1.12194 1.09787 0.998363 0.953365 0.934035 0.928755 0.773051
threshold=-0.086210467366691759 -0.052816901408450696 1.0000000180025095e-35 0.7014585000000001 1.6161971830985917 0.80683650000000007 -0.32042253521126757 -0.035947968543233559 0.7014585000000001 0.63223300000000016 -0.095070422535211252 -0.035917825058937571 -0.22887323943661969 -0.24295774647887322 -0.035910769477446973 -0.035621133606907517 -0.085927405039966556 0.36267605633802824 0.87676056338028185 -0.29225352112676051 1.0000000180025095e-35 -0.035651974148651976 0.080985915492957763 -0.2570422535211267 0.31350100000000009 0.67502550000000017 4.2766890000000011 0.94437900000000008 -0.035259445798158033 1.7840815000000003
decision_type=2 2 2 2 2 2 2 2 2 2 2 2 2 2 2 2 2 2 2 2 2 2 2 2 2 2 2 2 2 2
left_child=2 5 -1 18 8 19 16 -6 10 -9 23 -10 29 15 -5 -8 -7 -16 -3 27 21 -15 -14 -4 -12 -21 -17 -2 -29 -13
right_child=1 3 4 14 7 6 13 9 11 -11 24 12 22 20 17 26 -18 -19 -20 25 -22 -23 -24 -25 -26 -27 -28 28 -30 -31
leaf_value=-0.0020991547360133694 -0.0014410089113868988 0.00051400597767412839 -0.0017148032813740863 0.0022859225538797399 -0.0003472841658053999 -0.00035209796522825187 0.00059289980686746317 0.00072570728449371333 -0.00080466187964399016 0.0028851783162232403 -0.00080257947381715444 -0.0010047957537320368 0.00074676560443531423 0.0020191873818944006 0.0035497410271462045 0.0015317756196106076 0.00086282443867440788 0.0044202657230179836 0.0016208264923002062 -0.00057473325288925458 0 0.0032902079469310174 0.0020907294215467358 -0.0011956841642189644 -0.00018320937519944675 0.00056222340203354159 0.0025535613164389456 -0.0013857044907870575 0.0016135719086604096 -8.97704862000984e-05
leaf_weight=3017 375 320 1034 127 351 578 361 332 780 247 1208 133 231 366 582 236 325 1004 420 319 31 223 137 731 381 101 160 20 21 311
leaf_count=3017 375 320 1034 127 351 578 361 332 780 247 1208 133 231 366 582 236 325 1004 420 319 31 223 137 731 381 101 160 20 21 311
internal_value=0 0.00170992 -0.00107076 0.00311633 -0.000542541 0.000602365 0.00111351 0.000894531 -0.000812969 0.001649 -0.0011001 -0.000207378 0.000365165 0.00178778 0.0039678 0.0013031 8.41063e-05 0.00410169 0.00114369 -0.000790438 0.00237766 0.00250258 0.00125025 -0.00150045 -0.000654721 -0.000298873 0.00194768 -0.00128414 0.000126368 -0.000366282
internal_weight=14462 5569 8893 2453 5876 3116 2280 930 4946 579 3354 1592 812 1377 1713 757 903 1586 740 836 620 589 368 1765 1589 420 396 416 41 444
internal_count=14462 5569 8893 2453 5876 3116 2280 930 4946 579 3354 1592 812 1377 1713 757 903 1586 740 836 620 589 368 1765 1589 420 396 416 41 444
is_linear=0
shrinkage=0.01


Tree=4
num_leaves=31
num_cat=0
split_feature=2 4 11 6 4 6 4 3 6 6 4 3 4 4 3 3 2 4 4 4 2 3 4 4 6 3 6 11 3 6
split_gain=259.527 84.9844 47.3201 40.3281 22.3819 21.7475 15.4934 8.55449 8.41646 6.44034 5.83942 5.34072 5.16242 3.81933 3.70841 3.37079 3.01194 2.63914 2.15739 1.97277 1.80239 2.13926 1.49712 1.23795 0.978568 0.966555 0.934025 0.915434 0.910855 0.757607
threshold=-0.086210467366691759 -0.052816901408450696 1.0000000180025095e-35 0.7014585000000001 1.6161971830985917 0.80683650000000007 -0.32042253521126757 -0.035947968543233559 0.7014585000000001 0.63223300000000016 -0.066901408450704206 -0.035917825058937571 -0.22887323943661969 -0.24295774647887322 -0.035910769477446973 -0.035621133606907517 -0.085927405039966556 0.36267605633802824 0.87676056338028185 -0.29225352112676051 1.0000000180025095e-35 -0.035651974148651976 0.080985915492957763 -0.2570422535211267 0.67502550000000017 -0.035941916044412707 4.2766890000000011 0.94437900000000008 -0.029138992376780356 1.7840815000000003
decision_type=2 2 2 2 2 2 2 2 2 2 2 2 2 2 2 2 2 2 2 2 2 2 2 2 2 2 2 2 2 2
left_child=2 5 -1 18 8 19 16 -6 10 -9 23 -10 29 15 -5 -8 -7 -16 -3 27 21 -15 -14 -4 -21 -12 -17 -2 -29 -13
right_child=1 3 4 14 7 6 13 9 11 -11 25 12 22 20 17 26 -18 -19 -20 24 -22 -23 -24 -25 -26 -27 -28 28 -30 -31
leaf_value=-0.0020781638681175402 -0.0014266026430666224 0.00050886752168035926 -0.0016976569123220678 0.0022630812767028435 -0.00034381231360251693 -0.00034857759567615492 0.00058697244347795548 0.00071845239821052495 -0.00079661630017883707 0.0028563383031065099 -0.00085398904195974458 -0.00099475533776698967 0.00073930117975451351 0.0019990010611871038 0.0035142497108518705 0.0015164643334803099 0.00085419886179299289 0.0043760674164038992 0.0016046220697644345 -0.00056898772119743193 0 0.0032573206019422931 0.0020698374006584731 -0.0011702975671558985 0.00055660673578819737 -0.0003406655187712365 0.0025280416436228139 -0.0013002166862630445 0.0016699786282223254 -8.8873067441896646e-05
leaf_weight=3017 375 320 1034 127 351 578 361 332 780 247 830 133 231 366 582 236 325 1004 420 319 31 223 137 817 101 673 160 21 20 311
leaf_count=3017 375 320 1034 127 351 578 361 332 780 247 830 133 231 366 582 236 325 1004 420 319 31 223 137 817 101 673 160 21 20 311
internal_value=0 0.00169284 -0.00106006 0.00308519 -0.00053712 0.000596354 0.0011024 0.000885589 -0.000804848 0.00163253 -0.00108911 -0.000205303 0.000361503 0.00176994 0.00392814 0.0012901 8.32547e-05 0.00406069 0.00113227 -0.000782535 0.00235391 0.00247758 0.00123778 -0.00146551 -0.000295861 -0.000624841 0.00192824 -0.0012713 0.000124866 -0.000362644
internal_weight=14462 5569 8893 2453 5876 3116 2280 930 4946 579 3354 1592 812 1377 1713 757 903 1586 740 836 620 589 368 1851 420 1503 396 416 41 444
internal_count=14462 5569 8893 2453 5876 3116 2280 930 4946 579 3354 1592 812 1377 1713 757 903 1586 740 836 620 589 368 1851 420 1503 396 416 41 444
is_linear=0
shrinkage=0.01


Tree=5
num_leaves=31
num_cat=0
split_feature=6 4 3 6 4 4 3 3 3 4 3 3 4 3 4 3 4 6 4 10 10 6 3 10 3 6 6 6 4 3
split_gain=253.63 80.4587 59.7246 41.5431 23.5226 17.8383 11.3876 9.38737 6.48327 6.46203 5.89558 3.66763 3.30485 2.54593 2.47511 1.90015 1.83202 1.63716 2.29128 1.83301 1.43619 1.41011 1.36118 1.58733 1.29384 1.22523 1.1647 1.13455 1.07977 0.959778
threshold=0.7014585000000001 -0.03873239436619718 -0.035944789281212489 1.0000000180025095e-35 -0.02464788732394366 -0.32042253521126757 -0.035660338838033601 -0.035948104554443014 -0.03572783440072682 0.82042253521126773 -0.035926733793157022 -0.034832268592054828 -0.21478873239436616 -0.035951912868307824 -0.2570422535211267 -0.035905584050086412 0.36267605633802824 2.2516690000000001 -0.20070422535211266 0.012415500000000001 0.50912100000000005 1.2785305000000002 -0.035303530431423404 0.0073445000000000012 -0.035923248505914683 0.16934900000000006 0.0096780000000000008 0.63223300000000016 0.49647887323943668 -0.035591007124012718
decision_type=2 2 2 2 2 2 2 2 2 2 2 2 2 2 2 2 2 2 2 2 2 2 2 2 2 2 2 2 2 2
left_child=3 5 13 -1 14 11 10 -6 15 25 -7 21 -12 -3 22 -4 -10 19 -19 -8 -14 -2 -5 -24 -23 -9 -11 29 -17 -16
right_child=1 2 8 4 7 6 17 9 16 26 12 -13 20 -15 27 28 -18 18 -20 -21 -22 24 23 -25 -26 -27 -28 -29 -30 -31
leaf_value=-0.0020574418601589585 -0.001339612635246241 -0.0008343366440152814 0.0022013952828576853 -0.0016189119015054105 -0.00068446878115778432 -0.00072336614594953937 0.003799621514790423 -0.0002104948409430531 0.0035280320768620844 0.00058395188538740801 0.00039857790293266484 0.00085060800067162724 0.00093685391211769081 0.0014006040192346284 -0.0010746251730867397 0.0026358302912984966 0.0043309967224918876 0.0020624667550880483 0.0035863331354354039 0.0010438552863894928 0.0020170820845336382 -0.0010461953528506835 0.0018146548225424597 -0.0011005791831008274 -0.0001722237269129314 0.00080997023952165449 0.0014430198768370323 0.00034190283056895242 0.003610195713777087 3.6158524725890195e-05
leaf_weight=3029 174 360 270 1365 1038 265 28 759 462 228 542 239 232 59 1071 193 849 419 133 193 275 217 24 81 791 139 550 66 329 82
leaf_count=3029 174 360 270 1365 1038 265 28 759 462 228 542 239 232 59 1071 193 849 419 133 193 275 217 24 81 791 139 550 66 329 82
internal_value=0 0.00156602 0.00292842 -0.00111987 -0.000594034 0.00058621 0.0011747 6.23919e-05 0.00361535 0.000525556 0.000606992 -0.000277406 0.000944059 -0.000516986 -0.00125691 0.00289571 0.00404908 0.00213822 0.00243202 0.00139909 0.00152503 -0.000506388 -0.00153425 -0.000423633 -0.000361447 -5.13526e-05 0.00119265 -0.000921551 0.00325243 -0.000994764
internal_weight=14462 6030 2522 8432 5403 3508 2087 2714 2103 1676 1314 1421 1049 419 2689 792 1311 773 552 221 507 1182 1470 105 1008 898 778 1219 522 1153
internal_count=14462 6030 2522 8432 5403 3508 2087 2714 2103 1676 1314 1421 1049 419 2689 792 1311 773 552 221 507 1182 1470 105 1008 898 778 1219 522 1153
is_linear=0
shrinkage=0.01


Tree=6
num_leaves=31
num_cat=0
split_feature=2 4 11 4 3 4 3 2 11 3 4 11 11 11 2 3 3 3 4 2 4 2 3 4 4 4 2 11 2 4
split_gain=249.808 81.6602 45.3606 21.5496 17.4705 15.6572 9.55481 9.12716 8.26431 8.17041 7.58676 7.3041 5.34832 5.32246 3.62847 3.38179 3.20954 2.36035 2.16606 2.07751 2.07383 2.0541 1.9771 1.90998 1.90854 1.83582 1.60765 1.21428 0.917814 0.86241
threshold=-0.086210467366691759 -0.052816901408450696 1.0000000180025095e-35 1.6161971830985917 -0.035728616465181197 -0.32042253521126757 -0.035660338838033601 2.0104134676236018 0.0051825000000000005 -0.035947968543233559 -0.2570422535211267 0.0029350000000000005 0.014115000000000001 0.0015665000000000002 0.031087471596607942 -0.035941780033203245 -0.035722206936935515 -0.035948291569856017 -0.22183098591549291 -0.085990059190426946 -0.17957746478873235 2.0104134676236018 -0.035910769477446973 0.21478873239436622 0.15845070422535215 -0.066901408450704206 -0.085981012294539486 1.5794890000000001 -0.086174357942069638 0.87676056338028185
decision_type=2 2 2 2 2 2 2 2 2 2 2 2 2 2 2 2 2 2 2 2 2 2 2 2 2 2 2 2 2 2
left_child=2 5 -1 10 8 16 13 24 22 -5 27 25 -11 15 20 -7 -2 -13 -17 -18 26 -21 -3 -19 -6 -12 -8 -4 -26 -10
right_child=1 4 3 9 7 6 14 -9 29 12 11 17 -14 -15 -16 18 19 23 -20 21 -22 -23 -24 -25 28 -27 -28 -29 -30 -31
leaf_value=-0.0020368125041424663 -0.00099134323514388722 0.0020017112001394356 -0.0014877311827106996 -0.00033343926094220018 0.0031168974038730934 -0.001648878982481534 0.0014398566800211865 -0.00042152151179373516 0.00087718878287984482 0.0028094887739942578 0.00021510135875228557 -0.00097080753225679925 0.00083013865014434766 -9.2681570033639732e-05 -0.00058391980276612226 0.00076861737819986398 -0.00041987267781160768 -0.00065745891971047356 0.0021172954262703579 0.00081994283361221934 0.0031917761495126613 -0.0018128103653775568 0.0036015798614082674 0.00012693350144260356 0.0034337872263860546 0.0015970008200148389 0.002533715679395432 -0.00081915176243423169 0.0042346933787829992 0.0016381352534816068
leaf_weight=3017 429 110 1295 351 258 36 333 50 254 224 267 1485 355 587 50 220 405 930 268 359 162 32 294 463 192 152 235 354 905 390
leaf_count=3017 429 110 1295 351 258 36 333 50 254 224 267 1485 355 587 50 220 405 930 268 359 162 32 294 463 192 152 235 354 905 390
internal_value=0 0.00166085 -0.00104001 -0.000528005 0.0030257 0.000586015 0.00115663 0.00375547 0.00204612 0.000867991 -0.00079071 -0.000513211 0.00159798 0.000559699 0.00200542 0.0012923 -0.000294038 -0.00069298 0.00151162 8.05927e-05 0.00218419 0.000601509 0.00316905 -0.000396037 0.00391036 0.000719058 0.00189455 -0.00134487 0.00409575 0.00133975
internal_weight=14462 5569 8893 5876 2453 3116 1891 1405 1048 930 4946 3297 579 1111 780 524 1225 2878 488 796 730 391 404 1393 1355 419 568 1649 1097 644
internal_count=14462 5569 8893 5876 2453 3116 1891 1405 1048 930 4946 3297 579 1111 780 524 1225 2878 488 796 730 391 404 1393 1355 419 568 1649 1097 644
is_linear=0
shrinkage=0.01


Tree=7
num_leaves=31
num_cat=0
split_feature=2 4 6 6 4 6 4 6 10 6 4 10 4 4 2 4 2 4 4 2 2 2 4 0 10 4 4 6 6 2
split_gain=244.839 80.0368 44.427 38.1573 21.1296 20.6288 14.6055 7.95606 7.84091 6.25418 5.53194 3.94907 8.11275 3.63157 2.86489 2.54644 2.09681 2.05004 1.87411 1.74905 1.7092 1.53582 1.27426 1.19039 1.03688 1.02351 0.983113 0.933193 0.7262 0.660616
threshold=-0.086210467366691759 -0.052816901408450696 1.0000000180025095e-35 0.7014585000000001 1.6161971830985917 0.80683650000000007 -0.32042253521126757 0.7014585000000001 1.0000000180025095e-35 0.63223300000000016 -0.095070422535211252 0.0016960000000000002 -0.22887323943661969 -0.24295774647887322 -0.085927405039966556 0.36267605633802824 -0.085990059190426946 0.87676056338028185 -0.29225352112676051 -0.086194366627574528 1.0000000180025095e-35 -0.086149659720899538 0.29225352112676062 -0.35826506105368661 0.31350100000000009 -0.2711267605633802 -0.31338028169014082 0.67502550000000017 2.0371920000000006 2.0104134676236018
decision_type=2 2 2 2 2 2 2 2 2 2 2 2 2 2 2 2 2 2 2 2 2 2 2 2 2 2 2 2 2 2
left_child=2 5 -1 17 7 18 14 10 -6 -10 25 -9 26 16 -7 28 -8 29 -2 -17 21 -15 -14 -18 -12 -4 -13 -20 -5 -3
right_child=1 3 4 15 8 6 13 11 9 -11 24 12 22 20 -16 19 23 -19 27 -21 -22 -23 -24 -25 -26 -27 -28 -29 -30 -31
leaf_value=-0.0020163498982949677 -0.0012391879732560074 0.00064408760890447773 -0.0016702944252828793 0.0027337694696452199 -0.00034499594352713328 -0.00033765532576898359 0.00087757769210817106 -0.0010115914617730673 0.00067826010091597097 0.0027717264252893844 -0.00077404265185431408 -0.00083084393615382346 0.00078100182608358091 0.00200927592078171 0.00083537370305404091 0.0031936967855688636 0.0022961860989206893 0.0015562512254122078 -0.00055511412758837508 0.0042982627235286014 0 0.0030840699227092368 0.0019304526775641049 0.00036326271038778754 -0.00017205593325920747 -0.0011799005523088688 -3.3869195343766218e-05 0.00054400017060814794 0.0035239093747570158 -0.00083704016630022906
leaf_weight=3016 416 287 953 180 341 578 505 436 342 247 1208 469 309 370 325 182 213 420 319 901 31 219 144 39 381 812 235 101 450 33
leaf_count=3016 416 287 953 180 341 578 505 436 342 247 1208 469 309 370 325 182 213 420 319 901 31 219 144 39 381 812 235 101 450 33
internal_value=0 0.00164425 -0.00102961 0.00299547 -0.000523026 0.000580153 0.00107301 -0.000783111 0.000859314 0.00155818 -0.00105955 -0.000200415 0.000104463 0.00172115 8.34697e-05 0.00381542 0.00125318 0.00109579 -0.000762785 0.00411387 0.00229062 0.00241106 0.00114894 0.00200127 -0.000630351 -0.00144533 -0.000566271 -0.000288356 0.00330021 0.000488009
internal_weight=14462 5569 8893 2453 5877 3116 2280 4947 930 589 3354 1593 1157 1377 903 1713 757 740 836 1083 620 589 453 252 1589 1765 704 420 630 320
internal_count=14462 5569 8893 2453 5877 3116 2280 4947 930 589 3354 1593 1157 1377 903 1713 757 740 836 1083 620 589 453 252 1589 1765 704 420 630 320
is_linear=0
shrinkage=0.01


Tree=8
num_leaves=31
num_cat=0
split_feature=6 4 3 11 4 4 3 3 3 3 4 3 4 4 3 6 3 4 6 4 10 6 10 3 10 3 6 4 6 3
split_gain=239.516 75.7668 56.3408 40.0709 21.3473 16.8165 10.8064 9.00884 6.12241 5.58548 4.09644 3.50167 3.31782 3.12065 2.39301 1.89429 1.82468 1.71973 1.54238 2.17468 1.77889 1.35242 1.34424 1.2867 1.51988 1.23632 1.09265 1.03259 0.917969 0.821112
threshold=0.7014585000000001 -0.03873239436619718 -0.035944789281212489 0.0013755000000000002 0.22183098591549297 -0.32042253521126757 -0.035660338838033601 -0.035948104554443014 -0.03572783440072682 -0.035926733793157022 -0.24999999999999997 -0.034832268592054828 0.86267605633802824 -0.21478873239436616 -0.035951912868307824 0.41292600000000007 -0.035905584050086412 0.36267605633802824 2.2516690000000001 -0.20070422535211266 0.012415500000000001 1.2785305000000002 0.32039750000000006 -0.035303530431423404 0.0073445000000000012 -0.035923248505914683 0.0096780000000000008 0.49647887323943668 2.0371920000000006 -0.035591007124012718
decision_type=2 2 2 2 2 2 2 2 2 2 2 2 2 2 2 2 2 2 2 2 2 2 2 2 2 2 2 2 2 2
left_child=3 5 14 -1 10 11 9 -6 16 -7 23 21 -9 -11 -3 29 -4 28 20 -20 -8 -2 -15 -5 -25 -23 -14 -18 -10 -12
right_child=1 2 8 4 7 6 18 12 17 13 15 -13 26 22 -16 -17 27 -19 19 -21 -22 25 -24 24 -26 -27 -28 -29 -30 -31
leaf_value=-0.001985567408246818 -0.0013072559907745893 -0.00081012300029707361 0.0021311703115503063 -0.001545268444716284 -0.00060629589697746634 -0.00070549692448315714 0.0037280675917333557 0.00013032689649375643 0.0025462253669665575 0.00038731003680194152 -0.00090867270269447999 0.00083469007334456514 0.00056929881600092675 0.00065293046158507715 0.0013565088503453536 0.00030401476479065281 0.0025579860314132634 0.0042059694914630521 0.0020061093100896175 0.0034910754170926505 0.0010132429851982148 -0.0010186251705831568 0.001807878253403338 0.0018055377356491643 -0.0010434119109714907 -0.0001642738422999897 0.0014087441845081802 0.0035112161143360005 0.0036704162237750498 -1.8930357307384214e-05
leaf_weight=3130 174 360 270 1354 798 265 28 525 101 542 1483 239 224 144 59 156 193 849 419 133 193 217 363 24 82 791 542 329 361 114
leaf_count=3130 174 360 270 1354 798 265 28 525 101 542 1483 239 224 144 59 156 193 849 419 133 193 217 363 24 82 791 542 329 361 114
internal_value=0 0.00152184 0.00284392 -0.00108824 -0.000558297 0.000571016 0.0011424 0.000228237 0.00351111 0.000589347 -0.00106998 -0.000267483 0.000744865 0.000917442 -0.000502399 -0.000742887 0.00281166 0.00393265 0.00208102 0.00236628 0.00136326 -0.000491239 0.00148201 -0.00146195 -0.000387848 -0.000349271 0.00116468 0.00316125 0.00342742 -0.000845791
internal_weight=14462 6030 2522 8432 5302 3508 2087 2089 2103 1314 3213 1421 1291 1049 419 1753 792 1311 773 552 221 1182 507 1460 106 1008 766 522 462 1597
internal_count=14462 6030 2522 8432 5302 3508 2087 2089 2103 1314 3213 1421 1291 1049 419 1753 792 1311 773 552 221 1182 507 1460 106 1008 766 522 462 1597
is_linear=0
shrinkage=0.01


Tree=9
num_leaves=31
num_cat=0
split_feature=2 4 3 4 3 4 3 2 4 2 3 2 2 3 4 4 2 4 2 2 4 0 2 4 2 4 10 4 10 2
split_gain=235.688 76.9341 36.627 25.9547 16.467 14.7792 9.07003 8.68058 4.85891 4.19486 4.0695 3.47104 3.4049 3.04418 2.95437 2.16426 1.98235 1.97424 1.97384 1.96199 1.80047 1.59715 1.53974 1.53574 1.33048 1.24015 1.22189 1.0845 0.947747 0.865437
threshold=-0.086210467366691759 -0.052816901408450696 -0.035948291569856017 0.29929577464788737 -0.035728616465181197 -0.32042253521126757 -0.035660338838033601 2.0104134676236018 -0.2570422535211267 -0.086229538145063608 -0.035879112868445764 0.031087471596607942 -0.086231433499061608 -0.035722206936935515 -0.21478873239436616 -0.045774647887323931 -0.085990059190426946 -0.22887323943661969 2.0104134676236018 -0.086183844481925731 0.15845070422535215 -0.17068388023433842 -0.086231042704422847 0.51056338028169024 -0.085990059190426946 -0.20070422535211266 0.11774050000000001 0.86267605633802824 0.13738950000000003 -0.086174357942069638
decision_type=2 2 2 2 2 2 2 2 2 2 2 2 2 2 2 2 2 2 2 2 2 2 2 2 2 2 2 2 2 2
left_child=2 5 9 8 19 13 10 20 -4 -1 -7 17 21 -2 -12 -11 -15 24 -18 28 -6 26 -10 -21 -8 -16 -5 -14 -3 -22
right_child=1 4 3 12 7 6 11 -9 22 15 14 -13 27 16 25 -17 18 -19 -20 23 29 -23 -24 -25 -26 -27 -28 -29 -30 -31
leaf_value=-0.0016847108622055568 -0.00096414665650479544 0.00038409158012492296 -0.0012142834057253702 0.0024889563988733723 0.0030264657615322772 -0.00068292916325559717 0.0012675588498414305 -0.00042658109589667611 -0.00068185091989787392 -0.0014985401067103494 0.00026497632820018702 -0.00058091581455188362 0.0010033989396214121 -0.00040904491243668318 0.0019371990345931171 -0.00056901623617743166 0.00080282037209200585 0.0028534995632932066 -0.0017778470722314354 0.0019751214495926368 0.0033341483245629194 -0.00021665879426517462 8.6455699501248782e-07 0.0032094058288167711 0.0023425313904319434 0.0008697163159090039 0.00066210936499326958 0.0019379035470480294 0.0017499556194879549 0.0041128061913631329
leaf_weight=4220 429 58 1280 44 258 217 268 50 673 444 448 50 196 405 228 587 359 250 32 240 192 198 643 185 212 218 238 370 565 905
leaf_count=4220 429 58 1280 44 258 217 268 50 673 444 448 50 196 405 228 587 359 250 32 240 192 198 643 185 212 218 238 370 565 905
internal_value=0 0.00161325 -0.00101017 -0.000239237 0.00293802 0.000569968 0.00112436 0.00364654 -0.000775318 -0.00154467 0.000542734 0.00195134 0.00109022 -0.000285034 0.0008414 -0.000970392 7.97887e-05 0.00212621 0.000588657 0.00198693 0.0037976 0.000467592 -0.00034754 0.00251538 0.00174481 0.00141798 0.000951475 0.0016163 0.00162448 0.00397775
internal_weight=14462 5569 8893 3642 2453 3116 1891 1405 2596 5251 1111 780 1046 1225 894 1031 796 730 391 1048 1355 480 1316 425 480 446 282 566 623 1097
internal_count=14462 5569 8893 3642 2453 3116 1891 1405 2596 5251 1111 780 1046 1225 894 1031 796 730 391 1048 1355 480 1316 425 480 446 282 566 623 1097
is_linear=0
shrinkage=0.01


Tree=10
num_leaves=31
num_cat=0
split_feature=6 4 3 11 4 4 2 2 2 2 3 4 4 2 4 3 3 4 2 4 4 2 3 4 4 6 3 3 6 4
split_gain=231.358 72.9234 54.0328 38.5034 20.589 16.1928 13.2789 10.2833 7.69518 4.98894 3.6759 2.99016 2.98977 2.4933 2.32451 2.28991 2.14091 1.85357 1.70284 1.6776 1.48655 1.43639 2.08757 1.40419 1.10524 1.02584 0.999898 0.894182 0.819133 0.71333
threshold=0.7014585000000001 -0.03873239436619718 -0.035944789281212489 0.0013755000000000002 0.010563380281690142 -0.32042253521126757 -0.086204937622553199 -0.086210828851732618 -0.086194366627574528 -0.085990059190426946 -0.035660338838033601 1.7007042253521127 -0.22183098591549291 -0.086197512524416611 0.36267605633802824 -0.035951912868307824 -0.035944789281212489 -0.22887323943661969 2.0104134676236018 0.87676056338028185 -0.2570422535211267 1.0000000180025095e-35 -0.026523411811909398 1.7147887323943662 -0.24999999999999997 4.5919130000000008 -0.035944789281212489 -0.035941916044412707 4.3859710000000005 -0.22887323943661969
decision_type=2 2 2 2 2 2 2 2 2 2 2 2 2 2 2 2 2 2 2 2 2 2 2 2 2 2 2 2 2 2
left_child=3 5 15 -1 13 9 16 11 23 25 12 27 -8 20 -10 -3 -7 28 -19 -9 -5 22 24 -4 -15 -2 -13 -6 -12 -18
right_child=1 2 8 4 7 6 10 19 14 -11 17 26 -14 21 -16 -17 29 18 -20 -21 -22 -23 -24 -25 -26 -27 -28 -29 -30 -31
leaf_value=-0.0019491359732400873 -0.00074809524935618463 -0.00078533654679745733 0.0021331731151699603 -0.0015676920149014621 -0.00078622642971773319 -0.00098645339790167752 0.00053936283454993821 0.00050564690408158532 0.0033257049583200232 0.00074472529044371249 0.0014871811595067732 -0.00018047644512467843 0.0018353186578246394 -0.001015216092150439 0.0041761248233236035 0.0013340715334046311 -6.9974999978228766e-05 0.0031866785343391013 0.00033316583786144295 0.0014995727423975629 -0.0010391861459784382 -0.0017412227831612587 0.0021401571596151572 0.0030712310354743563 1.9712008747215697e-05 8.7079835971651547e-05 0.00067947594069361222 -0.00026147332444922001 0.0024164680904420403 0.00067188296720696041
leaf_weight=3130 881 360 369 1121 756 171 365 287 531 366 287 232 353 208 901 59 253 221 24 430 1050 84 32 302 201 174 319 582 152 261
leaf_count=3130 881 360 369 1121 756 171 365 287 531 366 287 232 353 208 901 59 253 221 24 430 1050 84 32 302 201 174 319 582 152 261
internal_value=0 0.00149571 0.00279275 -0.00106953 -0.000550052 0.000562893 0.00112358 8.34198e-05 0.00344613 -0.000259899 0.00168111 -0.00030318 0.00117807 -0.00116273 0.00386173 -0.000484266 -1.61498e-05 0.00220745 0.00291148 0.00110325 -0.0013126 -0.000540926 -0.000309688 0.00255725 -0.000504284 -0.000609408 0.000315609 -0.000558755 0.00181169 0.000304839
internal_weight=14462 6030 2522 8432 5302 3508 2087 2606 2103 1421 1402 1889 718 2696 1432 419 685 684 245 717 2171 525 441 671 409 1055 551 1338 439 514
internal_count=14462 6030 2522 8432 5302 3508 2087 2606 2103 1421 1402 1889 718 2696 1432 419 685 684 245 717 2171 525 441 671 409 1055 551 1338 439 514
is_linear=0
shrinkage=0.01


Tree=11
num_leaves=31
num_cat=0
split_feature=6 4 3 11 4 4 3 3 3 3 4 3 4 4 3 6 3 4 6 4 10 6 10 3 10 3 3 6 4 6
split_gain=226.757 71.4719 52.958 37.7369 20.195 15.8709 10.157 8.3692 5.73573 5.26754 3.85576 3.34644 3.11351 2.94499 2.24449 1.79153 1.75929 1.6119 1.46535 2.06454 1.72005 1.30292 1.26592 1.2297 1.45103 1.17443 1.07358 1.03363 0.988056 0.878667
threshold=0.7014585000000001 -0.03873239436619718 -0.035944789281212489 0.0013755000000000002 0.22183098591549297 -0.32042253521126757 -0.035660338838033601 -0.035948104554443014 -0.03572783440072682 -0.035926733793157022 -0.24999999999999997 -0.034832268592054828 0.86267605633802824 -0.21478873239436616 -0.035951912868307824 0.59353400000000012 -0.035905584050086412 0.36267605633802824 2.2516690000000001 -0.20070422535211266 0.012415500000000001 1.2785305000000002 0.50912100000000005 -0.035303530431423404 0.0073445000000000012 -0.035923248505914683 -0.035591007124012718 0.0096780000000000008 0.49647887323943668 2.0371920000000006
decision_type=2 2 2 2 2 2 2 2 2 2 2 2 2 2 2 2 2 2 2 2 2 2 2 2 2 2 2 2 2 2
left_child=3 5 14 -1 10 11 9 -6 16 -7 23 21 -9 -11 -3 26 -4 29 20 -20 -8 -2 -15 -5 -25 -23 -12 -14 -18 -10
right_child=1 2 8 4 7 6 18 12 17 13 15 -13 27 22 -16 -17 28 -19 19 -21 -22 25 -24 24 -26 -27 -28 -29 -30 -31
leaf_value=-0.0019296452779374812 -0.0012769851657507931 -0.00077748532092751662 0.0020662603623853352 -0.0015039954450021241 -0.0005838901079969303 -0.00068122539870422148 0.003647863931715276 0.00012303194359481056 0.0024676772480957559 0.00037971092529161401 -0.0008774354607062431 0.00082015864890721591 0.00054585653749206892 0.00089049996449044292 0.0013207533911450461 0.0006041820116828811 0.0024873882786581583 0.0040845775109356105 0.0019494048754551963 0.0033966396405318913 0.00097828201789352002 -0.00098906526982077306 0.0019054625034251025 0.0017705932250285052 -0.0010130380261986845 -0.00015633855126239918 4.5999733125894368e-05 0.0013624882645952435 0.0034202604469866131 0.0035680198446597067
leaf_weight=3130 174 360 270 1354 798 265 28 525 101 542 1523 239 224 232 59 95 193 849 419 133 193 217 275 24 82 791 135 542 329 361
leaf_count=3130 174 360 270 1354 798 265 28 525 101 542 1523 239 224 232 59 95 193 849 419 133 193 217 275 24 82 791 135 542 329 361
internal_value=0 0.00148077 0.00276484 -0.00105884 -0.000544553 0.000557281 0.00111237 0.000220446 0.00341169 0.000576156 -0.00104224 -0.000257286 0.000718407 0.000894785 -0.000479399 -0.000724859 0.00273453 0.00381978 0.00202238 0.00230047 0.00132253 -0.000476041 0.00144326 -0.00142255 -0.000372282 -0.000336678 -0.000801645 0.00112509 0.00307781 0.00333022
internal_weight=14462 6030 2522 8432 5302 3508 2087 2089 2103 1314 3213 1421 1291 1049 419 1753 792 1311 773 552 221 1182 507 1460 106 1008 1658 766 522 462
internal_count=14462 6030 2522 8432 5302 3508 2087 2089 2103 1314 3213 1421 1291 1049 419 1753 792 1311 773 552 221 1182 507 1460 106 1008 1658 766 522 462
is_linear=0
shrinkage=0.01


Tree=12
num_leaves=31
num_cat=0
split_feature=2 4 11 4 3 4 3 2 11 3 4 11 11 11 2 3 3 3 4 2 2 4 3 4 4 4 2 11 2 4
split_gain=222.522 72.4912 40.2796 19.2412 15.5039 13.9388 8.52886 8.28209 7.44132 7.09193 6.75934 6.49084 4.82072 4.7876 3.31021 3.04842 2.87806 2.06625 1.91048 1.88498 1.88839 1.86748 1.84333 1.6943 1.68586 1.62726 1.27261 1.11319 0.811491 0.768104
threshold=-0.086210467366691759 -0.052816901408450696 1.0000000180025095e-35 1.6161971830985917 -0.035728616465181197 -0.32042253521126757 -0.035660338838033601 2.0104134676236018 0.0051825000000000005 -0.035947968543233559 -0.2570422535211267 0.0029350000000000005 0.0015665000000000002 0.014115000000000001 0.031087471596607942 -0.035941780033203245 -0.035722206936935515 -0.035948291569856017 -0.22183098591549291 -0.085990059190426946 2.0104134676236018 -0.22887323943661969 -0.035910769477446973 0.15845070422535215 0.21478873239436622 -0.066901408450704206 -0.085990059190426946 1.5794890000000001 -0.086174357942069638 0.87676056338028185
decision_type=2 2 2 2 2 2 2 2 2 2 2 2 2 2 2 2 2 2 2 2 2 2 2 2 2 2 2 2 2 2
left_child=2 5 -1 10 8 16 12 23 22 -5 27 25 15 -11 21 -7 -2 -13 -17 -18 -21 26 -3 -6 -19 -12 -8 -4 -25 -10
right_child=1 4 3 9 7 6 14 -9 29 13 11 17 -14 -15 -16 18 19 24 -20 20 -22 -23 -24 28 -26 -27 -28 -29 -30 -31
leaf_value=-0.0019208546164539882 -0.00093580884438903514 0.0018688594098084461 -0.001407175959298986 -0.00029911301443865247 0.0029400234552490368 -0.0015653590399802889 0.0012280027088835967 -0.00043714791347650053 0.00082320110340478438 0.0026464706338985271 0.00020153200623705892 -0.00091478015169798308 -9.1600783176685563e-05 0.00077348728857926628 -0.0005773973892147313 0.00073641595799858425 -0.00039741447017698465 -0.00062249227330097147 0.0020037058159203193 0.00078497779845068552 -0.0017390445482879414 0.0027734895842875997 0.0034138377278850663 0.00323923592039717 0.00011432448374369924 0.0015028757319089459 0.0022795289082875067 -0.0007668318356690042 0.0039943898495469034 0.0015419375080155946
leaf_weight=3017 429 110 1295 351 258 36 268 50 254 224 267 1485 587 355 50 220 405 930 268 359 32 250 294 192 463 152 212 354 905 390
leaf_count=3017 429 110 1295 351 258 36 268 50 254 224 267 1485 587 355 50 220 405 930 268 359 32 250 294 192 463 152 212 354 905 390
internal_value=5.44347e-09 0.00156756 -0.000981527 -0.00049904 0.00285351 0.000554842 0.00109324 0.00354103 0.00193059 0.000820042 -0.000747281 -0.000485323 0.000529197 0.00150015 0.00189519 0.00122642 -0.000275476 -0.000654799 0.0014347 7.92232e-05 0.000575459 0.00206597 0.00299622 0.00368858 -0.000376883 0.000676251 0.00169489 -0.00127037 0.00386344 0.00126019
internal_weight=14462 5569 8893 5876 2453 3116 1891 1405 1048 930 4946 3297 1111 579 780 524 1225 2878 488 796 391 730 404 1355 1393 419 480 1649 1097 644
internal_count=14462 5569 8893 5876 2453 3116 1891 1405 1048 930 4946 3297 1111 579 780 524 1225 2878 488 796 391 730 404 1355 1393 419 480 1649 1097 644
is_linear=0
shrinkage=0.01


Tree=13
num_leaves=31
num_cat=0
split_feature=6 2 11 0 0 2 3 0 0 0 10 2 0 0 0 3 2 6 3 2 6 6 0 3 10 3 2 10 0 0
split_gain=218.491 49.3866 36.1342 17.0243 14.1405 11.0446 10.101 5.98587 6.99029 4.31555 3.64368 3.51471 3.39897 3.30783 4.41996 2.93148 2.60747 2.55596 2.11182 1.53875 1.3769 1.29785 1.28351 1.21526 1.56338 0.974806 0.860165 0.857509 0.695583 0.669319
threshold=0.7014585000000001 -0.086203198586410679 0.0013755000000000002 -0.58818439565606073 -0.17068388023433842 -0.086203589381049453 -0.035948104554443014 -0.66446879318001761 -0.073747994903644989 -0.54825368206205105 0.09047150000000001 -0.086114077869039768 -0.61544807522426703 1.9817365425324123 0.41909181655888728 -0.035910769477446973 1.0000000180025095e-35 3.8407915000000004 -0.030919175091763017 -0.086181675571680563 0.92594700000000019 4.7853120000000002 -0.17068388023433842 -0.035623258782055293 0.22975500000000001 -0.035930729122434842 -0.086210828851732618 0.010798500000000001 -0.2640300688669403 -0.25867895071515074
decision_type=2 2 2 2 2 2 2 2 2 2 2 2 2 2 2 2 2 2 2 2 2 2 2 2 2 2 2 2 2 2
left_child=2 6 -1 11 15 12 -2 -8 -9 -7 19 -3 -4 14 -12 28 22 -15 20 -6 -17 -13 -11 24 -14 -10 -27 -24 -5 -26
right_child=1 3 5 4 10 9 7 8 25 16 13 21 23 17 -16 18 -18 -19 -20 -21 -22 -23 27 -25 29 26 -28 -29 -30 -31
leaf_value=-0.0018914624792162919 -0.0008597787309601526 3.5838719893672321e-05 -0.0014998751862066288 0.0019977796820096591 0.0015549735921173396 -0.00096075557801107757 -0.00041802458905234935 0.0017752419132425318 -0.00069852538961040868 0.00099524382185774357 0.0021211347421395657 0.0010802732913560134 -0.0008851080928139422 0.0020914982421719229 0.0007665848368300889 0.0017146459018265096 -0.0013065701475793972 0.0044668232151531279 0.0041933915020194515 0.0032316411585344351 0.0032576484503947295 0.0021969978160411639 0.00189839630169203 0.00029985356859927258 -0.00020976943609075425 0.00022522843809821551 0.0013583176613827816 0.00014421868500631542 -3.0990874218703498e-05 -0.00066909260032943442
leaf_weight=3130 599 309 587 83 75 234 383 601 93 549 418 415 2013 265 577 65 71 56 257 237 945 143 30 122 653 408 81 410 20 633
leaf_count=3130 599 309 587 83 75 234 383 601 93 549 418 415 2013 265 577 65 71 56 257 237 945 143 30 122 653 408 81 410 20 633
internal_value=9.60496e-09 0.00145354 -0.00103935 0.00213089 0.00248799 -0.000536092 0.000243823 0.000666621 0.00101863 0.000266567 0.00185633 0.00089481 -0.000795484 0.00162396 0.00133679 0.00323768 0.000538512 0.00251026 0.00337033 0.00283243 0.00315952 0.00136859 0.0006721 -0.000674287 -0.000710622 0.000235428 0.000415202 0.000266498 0.0015945 -0.000436671
internal_weight=14462 6030 8432 3865 2998 5302 2165 1566 1183 1294 1628 867 4008 1316 995 1370 1060 321 1267 312 1010 558 989 3421 3299 582 489 440 103 1286
internal_count=14462 6030 8432 3865 2998 5302 2165 1566 1183 1294 1628 867 4008 1316 995 1370 1060 321 1267 312 1010 558 989 3421 3299 582 489 440 103 1286
is_linear=0
shrinkage=0.01


Tree=14
num_leaves=31
num_cat=0
split_feature=6 4 3 11 4 4 2 2 2 2 4 3 4 2 4 3 10 2 3 4 4 2 3 4 4 6 10 3 4 3
split_gain=214.147 67.9906 50.0813 35.4148 19.3604 15.0779 12.3229 9.49814 7.17294 4.63154 3.40485 2.94606 2.80641 2.31712 2.15719 2.13053 2.0736 1.6705 2.27458 1.56501 1.37271 1.35785 1.98907 1.31257 1.03318 0.998026 0.967279 0.911467 0.692514 0.677745
threshold=0.7014585000000001 -0.03873239436619718 -0.035944789281212489 0.0013755000000000002 0.010563380281690142 -0.32042253521126757 -0.086204937622553199 -0.086210828851732618 -0.086194366627574528 -0.085990059190426946 -0.24295774647887322 -0.035525211701437714 1.7007042253521127 -0.086197512524416611 0.36267605633802824 -0.035951912868307824 0.0016960000000000002 1.0000000180025095e-35 -0.035651974148651976 0.87676056338028185 -0.2570422535211267 1.0000000180025095e-35 -0.026523411811909398 1.7147887323943662 -0.24999999999999997 4.5919130000000008 0.30610850000000006 -0.035944789281212489 -0.22887323943661969 -0.035667054391500558
decision_type=2 2 2 2 2 2 2 2 2 2 2 2 2 2 2 2 2 2 2 2 2 2 2 2 2 2 2 2 2 2
left_child=3 5 15 -1 13 9 16 12 23 25 11 -8 26 20 29 -3 -7 18 -12 -9 -5 22 24 -4 -15 -2 -6 -14 -18 -10
right_child=1 2 8 4 7 6 10 19 14 -11 17 -13 27 21 -16 -17 28 -19 -20 -21 -22 -23 -24 -25 -26 -27 -28 -29 -30 -31
leaf_value=-0.0018725484446734753 -0.00072921807340208564 -0.00075386852605314385 0.0020518821147044674 -0.0015145582831507492 -0.0006842445200946031 -0.001008126579827177 0.00058413264204536599 0.00048629828282294245 0.0028036510096531497 0.00071227828696219012 0.0017987973593052914 0.0018328107086011459 -0.00016198185363600656 -0.00098437286073817243 0.0040247976541148743 0.0012903274526400413 -7.9139336974613349e-05 0 0.0030831996694716916 0.0014464983721487279 -0.0010064804149389416 -0.0016923791501454028 0.0020908366301535075 0.0029592794003825201 1.6064187775776791e-05 9.4556586157866474e-05 -4.5591310609654416e-05 0.00065885005967778333 0.00064557535281374633 0.0035574844609502047
leaf_weight=3130 881 360 369 1121 1025 162 411 287 250 366 377 355 232 208 901 59 258 34 225 430 1050 84 32 302 201 174 313 319 265 281
leaf_count=3130 881 360 369 1121 1025 162 411 287 250 366 377 355 232 208 901 59 258 34 225 430 1050 84 32 302 201 174 313 319 265 281
internal_value=1.68427e-08 0.00143903 0.00269144 -0.00102896 -0.000530734 0.000538304 0.00107935 8.35365e-05 0.00332048 -0.000255638 0.00161644 0.0011643 -0.000287995 -0.00112485 0.00372177 -0.000463397 -1.85391e-05 0.00215916 0.00228094 0.00106367 -0.00126935 -0.000525292 -0.000300389 0.00246215 -0.000490387 -0.00059241 -0.000535605 0.000311455 0.000286209 0.00320505
internal_weight=14462 6030 2522 8432 5302 3508 2087 2606 2103 1421 1402 766 1889 2696 1432 419 685 636 602 717 2171 525 441 671 409 1055 1338 551 523 531
internal_count=14462 6030 2522 8432 5302 3508 2087 2606 2103 1421 1402 766 1889 2696 1432 419 685 636 602 717 2171 525 441 671 409 1055 1338 551 523 531
is_linear=0
shrinkage=0.01


Tree=15
num_leaves=31
num_cat=0
split_feature=6 4 3 11 4 4 3 3 3 3 4 3 4 4 3 6 3 4 6 4 6 3 11 3 3 6 4 6 3 0
split_gain=209.889 66.6381 49.0852 34.7098 18.9843 14.7779 9.43777 7.74183 5.29988 4.89185 3.59204 3.16229 2.88509 2.75277 2.08828 1.68994 1.67277 1.48565 1.37832 1.92952 1.24245 1.16247 1.34888 1.09015 0.993235 0.961999 0.938771 0.830633 0.707431 0.652156
threshold=0.7014585000000001 -0.03873239436619718 -0.035944789281212489 0.0013755000000000002 0.22183098591549297 -0.32042253521126757 -0.035660338838033601 -0.035948104554443014 -0.03572783440072682 -0.035926733793157022 -0.24999999999999997 -0.034832268592054828 0.86267605633802824 -0.21478873239436616 -0.035951912868307824 0.59353400000000012 -0.035905584050086412 0.36267605633802824 2.2516690000000001 -0.20070422535211266 1.2785305000000002 -0.035303530431423404 0.89444050000000008 -0.035923248505914683 -0.035558857474377231 0.0096780000000000008 0.49647887323943668 2.0371920000000006 0.028838165850585126 -0.25334753683851263
decision_type=2 2 2 2 2 2 2 2 2 2 2 2 2 2 2 2 2 2 2 2 2 2 2 2 2 2 2 2 2 2
left_child=3 5 14 -1 10 11 9 -6 16 -7 21 20 -9 -11 -3 24 -4 27 29 -20 -2 -5 -23 -22 -12 -14 -18 -10 -26 -8
right_child=1 2 8 4 7 6 18 12 17 13 15 -13 25 -15 -16 -17 26 -19 19 -21 23 22 -24 -25 28 -27 -28 -29 -30 -31
leaf_value=-0.0018538235035457124 -0.0012479225051680784 -0.00074633190873363742 0.0019844258743242082 -0.001454258087047835 -0.0005572972016602691 -0.00065998818081440351 0.001997073358820098 0.00012201060681213687 0.0023699734906797712 0.00036067727150765219 -0.00084848905366232449 0.00079426046354067685 0.00052763699760919442 0.0013890136605221575 0.0012774459868921644 0.00058905935829376061 0.0023951812583908774 0.003934108513310778 0.0018759711740786919 0.0032755300484927953 -0.00095821167681690508 -0.0010860820783403879 0.0013840148825770382 -0.00015579614131550141 0.00055663625478303148 0.001315781999979147 0.0033048319678037081 0.0034404280610079254 -0.0010000162236306065 0.00084425632136792721
leaf_weight=3130 174 360 270 1354 798 265 80 525 101 542 1525 239 224 507 59 95 193 849 419 133 217 75 31 791 90 542 329 361 43 141
leaf_count=3130 174 360 270 1354 798 265 80 525 101 542 1525 239 224 507 59 95 193 849 419 133 217 75 31 791 90 542 329 361 43 141
internal_value=2.15559e-08 0.00142466 0.00266455 -0.00101867 -0.000525428 0.000532932 0.00106857 0.000216274 0.0032873 0.000551654 -0.00100796 -0.000253067 0.000695219 0.000858728 -0.000458738 -0.000701591 0.00263619 0.00367965 0.00194578 0.00221553 -0.000465732 -0.00137507 -0.000353647 -0.000329608 -0.000776177 0.00108671 0.00297094 0.00320914 4.54713e-05 0.0012668
internal_weight=14462 6030 2522 8432 5302 3508 2087 2089 2103 1314 3213 1421 1291 1049 419 1753 792 1311 773 552 1182 1460 106 1008 1658 766 522 462 133 221
internal_count=14462 6030 2522 8432 5302 3508 2087 2089 2103 1314 3213 1421 1291 1049 419 1753 792 1311 773 552 1182 1460 106 1008 1658 766 522 462 133 221
is_linear=0
shrinkage=0.01


Tree=16
num_leaves=31
num_cat=0
split_feature=2 4 11 6 4 6 4 6 3 4 3 4 6 4 3 3 2 4 2 3 4 4 4 3 2 3 4 3 6 6
split_gain=206.039 63.8488 39.6653 30.1004 20.4059 15.605 12.5229 7.91464 7.55773 4.97879 4.71739 5.20113 4.43398 3.1204 2.74287 2.63676 2.44153 2.18146 1.77208 2.76395 1.42405 1.40877 1.38685 1.28615 1.24532 1.72233 0.999063 0.786324 0.784098 0.648885
threshold=-0.086204937622553199 -0.052816901408450696 1.0000000180025095e-35 0.7014585000000001 1.6161971830985917 0.84649400000000008 -0.32042253521126757 0.7014585000000001 -0.035939076810415284 -0.066901408450704206 -0.035929215997729622 -0.22887323943661969 0.69504150000000009 -0.24295774647887322 -0.035910769477446973 -0.035621133606907517 -0.085927405039966556 0.36267605633802824 1.0000000180025095e-35 -0.027189543711628003 0.29929577464788737 0.059859154929577475 -0.26408450704225345 -0.035948104554443014 1.0000000180025095e-35 -0.035651974148651976 -0.278169014084507 -0.035941916044412707 1.3993565000000003 4.3859710000000005
decision_type=2 2 2 2 2 2 2 2 2 2 2 2 2 2 2 2 2 2 2 2 2 2 2 2 2 2 2 2 2 2
left_child=2 5 -1 20 7 18 16 9 23 26 -9 28 -10 15 -5 -8 -7 -16 19 22 -3 -13 -2 -6 25 -15 -4 -11 -12 -17
right_child=1 3 4 14 8 6 13 10 12 27 11 21 -14 24 17 29 -18 -19 -20 -21 -22 -23 -24 -25 -26 -27 -28 -29 -30 -31
leaf_value=-0.0018463423293234122 -0.001056486352676426 0.00028752427224332982 -0.0015501463001267122 0.0020179309275852506 -0.00028777032475857666 -0.00032393922162203027 0.00056486752551790614 -0.00073530603082529189 0.00076936524807566379 -0.00075162800092652097 -0.00096268125409696857 0.00068613794545530809 0.0027689560563160763 0.0018493938973972233 0.0031441263260763228 0.0014263391774981102 0.00077432633118568682 0.0039370701284914449 -0.0016551346900274422 0.001760158369114516 0.0013199085051890723 0.0018768898285539464 -8.2926983879071136e-05 0.00075266138027354395 5.0397595507522341e-05 0.0030138772020908361 -0.0010870904703267994 -0.00029263244909521596 -9.6707771943143516e-05 0.0022935784805534231
leaf_weight=3023 312 185 934 115 348 538 347 748 211 846 145 263 238 349 575 229 324 967 137 54 508 164 280 180 27 209 983 685 386 152
leaf_count=3023 312 185 934 115 348 538 347 748 211 846 145 263 238 349 575 229 324 967 137 54 508 164 280 180 27 209 983 685 386 152
internal_value=2.84775e-08 0.00156755 -0.000908809 0.00279812 -0.000446355 0.000589527 0.00102548 -0.000697645 0.000878194 -0.000973332 -0.000139843 0.000324075 0.00183189 0.0016403 0.00353026 0.00119996 8.77479e-05 0.00364226 -0.000620166 -0.000398905 0.00104583 0.00114615 -0.0005978 6.51041e-05 0.00218628 0.00228781 -0.00131329 -0.00054695 -0.000335198 0.00177546
internal_weight=14462 5308 9154 2350 6131 2958 2175 5154 977 3448 1706 958 449 1313 1657 728 862 1542 783 646 693 427 592 528 585 558 1917 1531 531 381
internal_count=14462 5308 9154 2350 6131 2958 2175 5154 977 3448 1706 958 449 1313 1657 728 862 1542 783 646 693 427 592 528 585 558 1917 1531 531 381
is_linear=0
shrinkage=0.01


Tree=17
num_leaves=31
num_cat=0
split_feature=2 4 3 4 3 4 2 3 4 2 2 2 0 3 2 4 4 3 2 2 2 4 4 2 10 3 10 0 4 3
split_gain=201.942 62.5784 34.756 25.3659 13.0984 12.7442 7.71937 6.72067 5.5227 3.61079 3.09991 3.07588 2.99909 2.46394 2.09269 2.08173 1.79249 1.69865 1.67226 1.74816 1.66328 1.5081 1.3416 1.14168 1.08342 1.07115 0.885652 0.840951 0.822294 0.674724
threshold=-0.086204937622553199 -0.052816901408450696 -0.035948291569856017 0.44718309859154937 -0.035728616465181197 -0.32042253521126757 2.0104134676236018 -0.035660338838033601 -0.24999999999999997 -0.086229538145063608 0.031087471596607942 -0.086224301496904118 1.9839096425919502 -0.035722206936935515 -0.086231042704422847 -0.045774647887323931 -0.22887323943661969 -0.035940215904294491 -0.085990059190426946 2.0104134676236018 -0.086183844481925731 0.15845070422535215 0.51056338028169024 -0.085990059190426946 0.11393100000000002 -0.035740755465625267 0.6753610000000001 1.9871629591642441 -0.21478873239436616 -0.034715502968735677
decision_type=2 2 2 2 2 2 2 2 2 2 2 2 2 2 2 2 2 2 2 2 2 2 2 2 2 2 2 2 2 2
left_child=2 5 9 8 20 13 21 12 -4 -1 16 24 17 -2 -10 -11 23 -7 -15 29 -3 -6 -22 -9 -5 -16 -13 -14 -19 -20
right_child=1 4 3 11 6 7 -8 10 14 15 -12 26 27 18 25 -17 -18 28 19 -21 22 -23 -24 -25 -26 -27 -28 -29 -30 -31
leaf_value=-0.0015568859589193613 -0.00091172524689001847 0.0014870525556104003 -0.0010847952205582996 0.0019158006897489206 0.0028210428311142332 -0.0010781831341553322 -0.00045021635374266225 0.0011811989782102598 -0.00058360189539529046 -0.0013978283198358744 -0.00056942979297684335 0.001730380246735562 0.0018364578603772971 -0.00037509608659970278 -1.3024081115205076e-05 -0.00051453045281378551 0.002703235496309968 0.00020857151214317301 0.00037398706353912274 -0.0016820832418504164 0.0018309987545382311 0.003698464723558914 0.0029857550577931245 0.002181446050811438 0.0006000469773589245 0.00097058002788057878 0.0030931291269065964 0.00016314824530980334 0.00093395305036854382 0.0012635883334871085
leaf_weight=4220 367 531 1416 73 255 81 50 264 750 485 50 324 198 399 603 605 239 486 210 32 240 1089 185 212 484 135 59 37 234 149
leaf_count=4220 367 531 1416 73 255 81 50 264 750 485 50 324 198 399 603 605 239 486 210 32 240 1089 185 212 484 135 59 37 234 149
internal_value=3.22426e-08 0.0015519 -0.000899724 -0.000175209 0.00277016 0.000583645 0.00338935 0.00110982 -0.000637605 -0.00142401 0.00182127 0.00125215 0.000583379 -0.000234564 -0.000211336 -0.000908567 0.00198991 0.000290331 7.88254e-05 0.000544569 0.00186598 0.00353296 0.00233659 0.00162915 0.000774597 0.000165656 0.00194367 0.00157744 0.000445806 0.000746243
internal_weight=14462 5308 9154 3844 2350 2958 1394 1801 2904 5310 765 940 1036 1157 1488 1090 715 801 790 391 956 1344 425 476 557 738 383 235 720 359
internal_count=14462 5308 9154 3844 2350 2958 1394 1801 2904 5310 765 940 1036 1157 1488 1090 715 801 790 391 956 1344 425 476 557 738 383 235 720 359
is_linear=0
shrinkage=0.01


Tree=18
num_leaves=31
num_cat=0
split_feature=6 4 3 11 4 4 3 3 3 3 4 3 4 4 3 6 3 4 4 6 6 3 11 3 6 3 6 4 6 3
split_gain=198.725 62.9006 46.1262 32.6838 17.971 13.9798 8.86725 7.18092 4.93477 4.61107 3.38101 3.00421 2.71991 2.59028 1.98863 1.60153 1.58501 1.39514 1.31692 1.38662 1.20027 1.11 1.28859 1.04268 1.03588 0.929791 0.912194 0.894221 0.791691 0.678424
threshold=0.7014585000000001 -0.03873239436619718 -0.035944789281212489 0.0013755000000000002 0.22183098591549297 -0.32042253521126757 -0.035660338838033601 -0.035948104554443014 -0.03572783440072682 -0.035926733793157022 -0.24999999999999997 -0.034792502314689729 0.86267605633802824 -0.21478873239436616 -0.035951912868307824 0.59353400000000012 -0.035905584050086412 0.36267605633802824 -0.19366197183098588 2.0371920000000006 1.2785305000000002 -0.035303530431423404 0.89444050000000008 -0.035923248505914683 4.3859710000000005 -0.035558857474377231 0.0096780000000000008 0.49647887323943668 2.0371920000000006 0.028838165850585126
decision_type=2 2 2 2 2 2 2 2 2 2 2 2 2 2 2 2 2 2 2 2 2 2 2 2 2 2 2 2 2 2
left_child=3 5 14 -1 10 11 9 -6 16 -7 21 20 -9 -11 -3 25 -4 28 24 -20 -2 -5 -23 -22 -8 -12 -14 -18 -10 -27
right_child=1 2 8 4 7 6 18 12 17 13 15 -13 26 -15 -16 -17 27 -19 19 -21 23 22 -24 -25 -26 29 -28 -29 -30 -31
leaf_value=-0.0018016080996465854 -0.0012183167495631593 -0.00071742968355744893 0.0019313715780908995 -0.001415602288728657 -0.00053591905131223315 -0.00063649212018987531 0.001339651140273884 0.00011374623266927465 0.0022971076702535094 0.00035472081339705641 -0.00082733451629307035 0.00078925157747689327 0.00050591995386470778 0.0013523607843332736 0.0012574673735248256 0.00057150684829339099 0.0023297330186905362 0.0038200271163478417 0.0015146491575241978 0.0031791143473658924 -0.00093123237333654716 -0.0010559645913709975 0.0013582439299139803 -0.0001470066322424326 0.0023084793830421089 0.00053809773969721393 0.001273549117125245 0.0032180913062542634 0.0033428123131976233 -0.00098644370407626695
leaf_weight=3130 174 360 270 1354 798 265 391 525 101 542 1525 234 224 507 59 95 193 849 84 137 217 75 31 796 161 90 542 329 361 43
leaf_count=3130 174 360 270 1354 798 265 391 525 101 542 1525 234 224 507 59 95 193 849 84 137 217 75 31 796 161 90 542 329 361 43
internal_value=3.75803e-08 0.00138627 0.00259089 -0.00099119 -0.000512552 0.000519902 0.00104088 0.000209075 0.00319458 0.000539793 -0.000982036 -0.000244562 0.000670355 0.000837934 -0.000436722 -0.000684759 0.0025661 0.00357327 0.00189118 0.00255196 -0.000449256 -0.00133822 -0.000339883 -0.000316062 0.0016244 -0.000757373 0.00105047 0.00289206 0.00311692 3.73169e-05
internal_weight=14462 6030 2522 8432 5302 3508 2087 2089 2103 1314 3213 1421 1291 1049 419 1753 792 1311 773 221 1187 1460 106 1013 552 1658 766 522 462 133
internal_count=14462 6030 2522 8432 5302 3508 2087 2089 2103 1314 3213 1421 1291 1049 419 1753 792 1311 773 221 1187 1460 106 1013 552 1658 766 522 462 133
is_linear=0
shrinkage=0.01


Tree=19
num_leaves=31
num_cat=0
split_feature=6 4 3 6 4 4 2 2 2 2 4 4 3 4 3 4 10 4 2 2 3 4 6 10 3 10 3 2 3 3
split_gain=194.773 61.6497 45.209 31.1919 18.3897 13.7024 11.2847 8.84566 6.59073 4.26951 3.13538 2.67832 2.65728 1.95247 1.94918 1.88935 1.88042 1.54464 1.54069 1.53982 2.07124 1.20089 0.956764 0.875143 0.872773 1.06506 0.789529 0.678523 0.783002 0.631585
threshold=0.7014585000000001 -0.03873239436619718 -0.035944789281212489 1.0000000180025095e-35 -0.02464788732394366 -0.32042253521126757 -0.086204937622553199 -0.086210828851732618 -0.086194366627574528 -0.085990059190426946 -0.24295774647887322 1.7007042253521127 -0.035525211701437714 0.36267605633802824 -0.035951912868307824 -0.28521126760563376 0.0016960000000000002 0.63732394366197198 -0.086202006662762426 1.0000000180025095e-35 -0.035651974148651976 1.7147887323943662 4.5919130000000008 0.31350100000000009 -0.035303530431423404 0.0080960000000000008 -0.035944789281212489 1.0000000180025095e-35 -0.032665950053422717 -0.035667054391500558
decision_type=2 2 2 2 2 2 2 2 2 2 2 2 2 2 2 2 2 2 2 2 2 2 2 2 2 2 2 2 2 2
left_child=3 5 14 -1 15 9 16 11 21 22 12 23 -8 29 -3 24 -7 -9 -17 20 -12 -4 -2 -6 -5 -26 -13 28 -20 -10
right_child=1 2 8 4 7 6 10 17 13 -11 19 26 -14 -15 -16 18 -18 -19 27 -21 -22 -23 -24 -25 25 -27 -28 -29 -30 -31
leaf_value=-0.0017937123508411418 -0.00069946388407224574 -0.00071025736595565266 0.0019470112021700604 -0.0014768892771352797 -0.00066047250362132818 -0.00096248924387486764 0.00055928720800349973 0.00039655720372946138 0.0026674508277486205 0.00068714862582913564 0.0017218499869237614 -0.00014281433422127577 0.0017454571275934388 0.0038358843833747177 0.001244913984197247 -0.0010374492440252648 0.0002700614451658272 0.0013447498459328664 -0.00021647154493108453 0 0.0029481136305683831 0.0028155286110954857 0.00010711549077555322 -6.7975040073445497e-05 0.001571177438049767 -0.0010251484163702792 0.00061900577911992109 -0.0013954692268047203 0.001745832759330715 0.0033957478320819122
leaf_weight=3029 881 360 369 1141 1093 162 411 280 250 366 377 234 355 901 59 1141 523 460 250 34 225 302 174 328 20 71 319 44 22 281
leaf_count=3029 881 360 369 1141 1093 162 411 280 250 366 377 234 355 901 59 1141 523 460 250 34 225 302 174 328 20 71 319 44 22 281
internal_value=4.43366e-08 0.00137243 0.00256501 -0.000981277 -0.000525605 0.000514711 0.00103049 5.47592e-05 0.00316267 -0.000242125 0.00154446 -0.000294399 0.00111047 0.00354737 -0.000432329 -0.00111172 -2.00706e-05 0.000987427 -0.000866056 0.00206533 0.00218225 0.00233976 -0.00056549 -0.000524428 -0.00140134 -0.000442452 0.000294869 -0.0002439 -5.34974e-05 0.00305531
internal_weight=14462 6030 2522 8432 5403 3508 2087 2714 2103 1421 1402 1974 766 1432 419 2689 685 740 1457 636 602 671 1055 1421 1232 91 553 316 272 531
internal_count=14462 6030 2522 8432 5403 3508 2087 2714 2103 1421 1402 1974 766 1432 419 2689 685 740 1457 636 602 671 1055 1421 1232 91 553 316 272 531
is_linear=0
shrinkage=0.01


Tree=20
num_leaves=31
num_cat=0
split_feature=6 2 11 0 2 0 10 0 0 0 10 0 0 0 0 6 2 6 2 10 6 2 0 10 10 2 2 2 6 0
split_gain=190.928 42.5983 30.3143 14.6766 9.17167 8.71037 7.69587 6.5722 6.35796 5.24388 3.50571 3.4891 3.1949 3.58817 2.91291 2.73231 2.33872 2.27881 1.9088 1.90821 1.50169 1.41067 1.23023 0.914215 0.836588 0.757942 0.617573 0.586299 0.575118 0.566912
threshold=0.69504150000000009 -0.086203198586410679 0.0013755000000000002 -0.83068913228718444 -0.086203589381049453 -0.17068388023433842 0.0016960000000000002 -0.66446879318001761 -0.073747994903644989 -0.58818439565606073 0.09047150000000001 -0.54825368206205105 1.9817365425324123 0.41909181655888728 -0.61544807522426703 0.82235750000000007 1.0000000180025095e-35 3.8407915000000004 -0.086146074180088864 0.043729500000000004 4.5520020000000008 -0.086181675571680563 -0.087869626670079845 0.29029300000000008 0.010798500000000001 -0.086240626942938617 -0.086201400931072342 -0.08623233232673079 4.3296710000000012 0.8186171069738809
decision_type=2 2 2 2 2 2 2 2 2 2 2 2 2 2 2 2 2 2 2 2 2 2 2 2 2 2 2 2 2 2
left_child=2 6 -1 18 14 9 -2 28 -9 20 21 -6 13 -12 -4 -11 22 -14 -3 -17 -5 -7 26 27 -24 -10 -13 -16 -8 -27
right_child=1 3 4 5 11 10 7 8 25 15 12 16 17 -15 23 19 -18 -19 -20 -21 -22 -23 24 -25 -26 29 -28 -29 -30 -31
leaf_value=-0.0017690483753609995 -0.00081264478540659507 -0.00024273269621395474 -0.0014077995754836082 0.00075425097714983797 -0.00089363603840312525 0.0014346966246786602 -0.00068694767538181724 0.0016487234072851964 -0.00093710807209971268 0.0011585401138116359 0.0018817965464565684 0.0012414981196911474 0.0019591852260507818 0.00069375660015129185 -0.0009400010069626866 0.0037510448418842561 -0.0012443489725956938 0.0042023697097033734 0.00093298878463430191 0.0028582040469856259 0.0022183500780525315 0.0030397829459882348 0.0017380896978851574 -0.00040336614288885293 -3.9550395046820708e-05 0.00065163350764963412 0.00058983196745977697 -0.0006125778384001 0.00012897520987431238 0
leaf_weight=3115 543 216 581 145 220 75 333 620 53 80 451 284 266 592 990 332 71 56 377 984 141 238 29 1118 284 257 317 1297 114 283
leaf_count=3115 543 216 581 145 220 75 333 620 53 80 451 284 266 592 990 332 71 56 377 984 141 238 29 1118 284 257 317 1297 114 283
internal_value=4.85811e-08 0.00133476 -0.000989054 0.00195577 -0.00052078 0.00221184 0.000219925 0.000558319 0.000940542 0.00272144 0.00170029 0.000243071 0.00147956 0.00120856 -0.000751949 0.00297492 0.000498035 0.00235359 0.000503078 0.00308448 0.00148008 0.00265895 0.0006346 -0.000639709 0.00012246 0.000198277 0.000899593 -0.000754785 -0.000476641 0.000311717
internal_weight=14462 6156 8306 3953 5191 3360 2203 1660 1213 1682 1678 1205 1365 1043 3986 1396 985 322 593 1316 286 313 914 3405 313 593 601 2287 447 540
internal_count=14462 6156 8306 3953 5191 3360 2203 1660 1213 1682 1678 1205 1365 1043 3986 1396 985 322 593 1316 286 313 914 3405 313 593 601 2287 447 540
is_linear=0
shrinkage=0.01


Tree=21
num_leaves=31
num_cat=0
split_feature=6 3 11 0 0 0 0 3 10 3 3 6 6 11 3 6 3 6 0 0 10 10 0 0 10 0 6 3 10 6
split_gain=187.149 36.8741 30.7707 18.5613 12.9364 5.7932 5.72989 4.81381 4.57728 4.229 4.1129 2.77513 2.49833 2.52246 2.37606 1.98522 1.97127 1.87581 1.70911 1.61569 1.46519 1.44649 1.23773 1.88932 1.15858 1.10527 0.785278 0.782178 0.74362 0.520479
threshold=0.7014585000000001 -0.035926733793157022 0.0013755000000000002 -0.83068913228718444 -0.17068388023433842 -0.58818439565606073 -0.61544807522426703 -0.035303530431423404 0.50620600000000004 -0.03572783440072682 -0.035344248787254701 0.015496000000000001 2.1324815000000004 0.00038750000000000004 -0.035948104554443014 4.5520020000000008 -0.030919175091763017 0.95443050000000007 -1.383437681174758 0.78084823385360747 0.0073445000000000012 0.68558350000000001 -0.63624804881875063 -0.055135899575063603 0.18351450000000002 0.41909181655888728 0.062873000000000012 -0.035259445798158033 0.013558000000000002 1.9415940000000003
decision_type=2 2 2 2 2 2 2 2 2 2 2 2 2 2 2 2 2 2 2 2 2 2 2 2 2 2 2 2 2 2
left_child=2 14 -1 18 5 15 -4 17 10 21 24 -10 20 -14 -2 -5 -11 -6 -3 26 -9 -7 -16 -24 -8 -19 -13 29 -12 -20
right_child=1 3 6 4 7 9 8 12 11 16 28 19 13 -15 22 -17 -18 25 27 -21 -22 -23 23 -25 -26 -27 -28 -29 -30 -31
leaf_value=-0.0017482142304955023 -0.00078814612085724737 -0.00015799416576851844 -0.0012930199770368046 0.00061431078612605311 4.7520699854246711e-05 0.0018339798225152487 -0.00074592768195033438 0.0034650179382058098 -0.00044870074895326693 0.0028858380590610546 0.0020027261983209146 0.0011351149975470395 0.00031835794498347988 0.0028180229312669025 -0.00063441460223786789 0.0021961822658037988 0.0038919093482131448 0.0016137985248660665 -0.00022478608823922245 -0.00078974719033960685 0.00079613422873844669 0.002997006650759795 0.0012710049907983679 -0.00037905027808390445 -0.00035616152417218316 0.0010069939092770979 0.00035967381507327761 0.0013576105985652182 0.00053982268448350213 0.00072265028364264076
leaf_weight=3130 609 395 774 187 153 494 2165 24 368 857 50 332 46 396 123 141 264 476 81 69 158 142 162 120 1197 866 223 144 124 192
leaf_count=3130 609 395 774 187 153 494 2165 24 368 857 50 332 46 396 123 141 264 476 81 69 158 142 162 120 1197 866 223 144 124 192
internal_value=5.35371e-08 0.00134531 -0.000961869 0.00169694 0.00196432 0.00252418 -0.000497443 0.00141288 -0.000361203 0.00275246 -0.000529691 0.00023836 0.00215233 0.00256027 -0.000393107 0.00129783 0.00312399 0.00110345 0.000311291 0.000645158 0.00115528 0.00209565 0.000198493 0.000565424 -0.000607468 0.00122307 0.000825464 0.000758146 0.00096685 0.000437902
internal_weight=14462 6030 8432 5016 4204 2085 5302 2119 4528 1757 3536 992 624 442 1014 328 1121 1495 812 624 182 636 405 282 3362 1342 555 417 174 273
internal_count=14462 6030 8432 5016 4204 2085 5302 2119 4528 1757 3536 992 624 442 1014 328 1121 1495 812 624 182 636 405 282 3362 1342 555 417 174 273
is_linear=0
shrinkage=0.01


Tree=22
num_leaves=31
num_cat=0
split_feature=2 4 11 4 3 4 2 3 11 4 3 11 11 11 2 3 3 2 3 3 4 4 4 4 4 2 3 2 11 2
split_gain=183.685 61.2075 32.8791 16.5367 12.726 11.7735 7.09158 7.04654 6.30637 5.78939 5.75314 5.2863 4.20216 3.92742 2.84327 2.52276 2.37477 1.70483 1.66925 1.63443 1.61008 1.59982 1.49182 1.38789 1.38708 1.13197 1.07765 1.40545 0.970367 0.679872
threshold=-0.086210467366691759 -0.052816901408450696 1.0000000180025095e-35 1.6161971830985917 -0.035728616465181197 -0.32042253521126757 2.0104134676236018 -0.035660338838033601 0.0051825000000000005 -0.2570422535211267 -0.035947968543233559 0.0029350000000000005 0.0015665000000000002 0.014115000000000001 0.031087471596607942 -0.035941780033203245 -0.034832268592054828 2.0104134676236018 -0.035951912868307824 -0.035910769477446973 -0.22183098591549291 -0.22887323943661969 0.15845070422535215 0.15845070422535215 -0.066901408450704206 -0.085990059190426946 -0.035923282508717048 -0.086010527059632386 1.5794890000000001 -0.086174357942069638
decision_type=2 2 2 2 2 2 2 2 2 2 2 2 2 2 2 2 2 2 2 2 2 2 2 2 2 2 2 2 2 2
left_child=2 5 -1 9 8 16 23 12 19 28 -5 24 15 -12 21 -7 26 -18 -13 -3 -17 25 -20 -6 -11 -9 -2 -28 -4 -25
right_child=1 4 3 10 6 7 -8 14 -10 11 13 18 -14 -15 -16 20 17 -19 22 -21 -22 -23 -24 29 -26 -27 27 -29 -30 -31
leaf_value=-0.0017403810425438604 -0.0015323503181540214 0.0016885196887143634 -0.0012978069681811586 -0.000240653348534888 0.0026862422159064851 -0.0014116993399950937 -0.00045110739584911809 0.0010915510717311565 0.0011521673681299544 0.00016615197728448157 0.0024181040047781374 -0.00083160526290692151 -0.00010381279589947862 0.00072105128471237337 -0.00057319859909023827 0.00067463764553495694 0.00080052558289522196 -0.0016373685591874465 -0.00060089787510211759 0.0031439601379930869 0.0018387968987726711 0.0025309593468176121 7.1232323550663527e-05 0.0029504705006222764 0.001367856144518111 0.0020833939576731402 -0.00064883675815528006 0.00026494059629126357 -0.00069958590239862942 0.0036442530553064782
leaf_weight=3017 94 110 1295 351 258 36 50 268 644 267 224 1476 587 355 50 220 255 32 876 294 268 250 526 192 152 212 614 230 354 905
leaf_count=3017 94 110 1295 351 258 36 50 268 644 267 224 1476 587 355 50 220 255 32 876 294 268 250 526 192 152 212 614 230 354 905
internal_value=6.02227e-08 0.00142427 -0.000891707 -0.000455768 0.00260592 0.000493675 0.00322889 0.000988508 0.00176954 -0.000685912 0.000767067 -0.000443442 0.000475707 0.00137963 0.00171748 0.00112671 -0.000269388 0.000524746 -0.000596402 0.00275067 0.00131627 0.00187581 -0.000348029 0.00336545 0.000604701 0.00153204 -0.000513466 -0.000398635 -0.00117004 0.00352402
internal_weight=14462 5569 8893 5876 2453 3116 1405 1891 1048 4946 930 3297 1111 579 780 524 1225 287 2878 404 488 730 1402 1355 419 480 938 844 1649 1097
internal_count=14462 5569 8893 5876 2453 3116 1405 1891 1048 4946 930 3297 1111 579 780 524 1225 287 2878 404 488 730 1402 1355 419 480 938 844 1649 1097
is_linear=0
shrinkage=0.01


Tree=23
num_leaves=31
num_cat=0
split_feature=2 4 11 4 3 4 2 3 4 11 3 11 11 11 2 3 3 3 2 4 4 4 4 4 3 2 11 3 3 2
split_gain=180.042 56.6384 34.4993 18.3397 11.6326 11.5352 6.99637 6.59091 6.11499 6.50166 5.97313 5.8567 3.66634 3.40984 2.82831 2.19676 2.08606 1.80802 1.6796 1.63566 1.59449 1.49982 1.35967 1.34042 1.09791 1.05398 1.0451 1.02609 0.955702 0.885551
threshold=-0.086204937622553199 -0.052816901408450696 1.0000000180025095e-35 1.6161971830985917 -0.035728616465181197 -0.32042253521126757 2.0104134676236018 -0.035939076810415284 -0.24999999999999997 0.0032205000000000007 -0.035660338838033601 0.0051825000000000005 0.0015665000000000002 0.014115000000000001 0.031087471596607942 -0.034832268592054828 -0.035941780033203245 -0.035948291569856017 2.0104134676236018 -0.22887323943661969 -0.22183098591549291 0.038732394366197194 0.21478873239436622 0.15845070422535215 -0.035948104554443014 -0.085990059190426946 1.4933035000000003 -0.035910769477446973 -0.035722206936935515 -0.085990059190426946
decision_type=2 2 2 2 2 2 2 2 2 2 2 2 2 2 2 2 2 2 2 2 2 2 2 2 2 2 2 2 2 2
left_child=2 5 -1 8 11 15 23 24 26 21 12 27 16 -9 19 28 -7 -11 -17 25 -18 -10 -19 -6 -5 -12 -4 -3 -2 -30
right_child=1 4 3 7 6 10 -8 13 9 17 14 -13 -14 -15 -16 18 20 22 -20 -21 -22 -23 -24 -25 -26 -27 -28 -29 29 -31
leaf_value=-0.0017238616930346552 -0.00087340688039514434 0.0018633194844514366 -0.0012503206866432532 -0.00024779657780266736 0.0026724717029002003 -0.0014373998799684532 -0.00044660534257972667 0.0025213424552932885 0.00030224997181293252 -0.00081498202066063576 0.0011013083990382235 0.0011861891289765643 -4.0060386020172722e-05 0.00076118255917722092 -0.00056747805371791299 0.00079916853907773552 0.00066789434136766117 -0.00053649037530535194 -0.0016210458736367686 0.0025582415004228123 0.0018293587426134704 0.0015389296982160608 0.00012038060744745387 0.0035009001771322636 0.00071329179568565789 0.0020625698542901224 -0.00066358401560427693 0.0031551032461276038 -0.00053193863416336866 0.00032741229474018648
leaf_weight=3023 367 88 1423 348 255 29 50 246 284 1497 264 615 522 203 50 254 220 927 32 239 265 152 474 1089 180 212 397 253 310 194
leaf_count=3023 367 88 1423 348 255 29 50 246 284 1497 264 615 522 203 50 254 220 927 32 239 265 152 474 1089 180 212 397 253 310 194
internal_value=6.36038e-08 0.00146537 -0.000849501 -0.000418198 0.00262437 0.000544199 0.00320795 0.000837483 -0.000656432 -0.000401451 0.0010448 0.00177214 0.000548425 0.00172812 0.00171556 -0.000234204 0.00114791 -0.000572933 0.000524408 0.00187666 0.00130482 0.000735933 -0.000313545 0.00334468 7.80266e-05 0.00153188 -0.00112293 0.00282532 -0.000484481 -0.000199174
internal_weight=14462 5308 9154 6131 2350 2958 1394 977 5154 3334 1801 956 1036 449 765 1157 514 2898 286 715 485 436 1401 1344 528 476 1820 341 871 504
internal_count=14462 5308 9154 6131 2350 2958 1394 977 5154 3334 1801 956 1036 449 765 1157 514 2898 286 715 485 436 1401 1344 528 476 1820 341 871 504
is_linear=0
shrinkage=0.01


Tree=24
num_leaves=31
num_cat=0
split_feature=6 4 3 6 4 4 2 2 2 2 3 4 4 4 4 3 10 4 2 4 3 10 6 2 4 3 6 3 6 10
split_gain=177.299 58.9917 40.9691 27.0182 17.4139 12.9381 10.0962 7.20265 5.75616 4.07672 3.16326 2.44289 2.30964 2.12898 2.03528 1.79546 1.67894 1.51703 1.50058 1.12899 1.05628 1.24499 0.988391 0.972622 0.905516 0.821172 0.802981 0.787354 0.780878 0.712775
threshold=0.69504150000000009 -0.03873239436619718 -0.035944789281212489 1.0000000180025095e-35 0.09507042253521128 -0.32042253521126757 -0.086204937622553199 -0.086209001886796366 -0.086194366627574528 -0.085990059190426946 -0.035660338838033601 -0.22183098591549291 1.7007042253521127 0.36267605633802824 -0.2570422535211267 -0.035951912868307824 0.0016960000000000002 -0.24295774647887322 2.0104134676236018 1.7147887323943662 -0.035303530431423404 0.0073445000000000012 4.5919130000000008 -0.086201850344906933 0.89788732394366211 -0.035667054391500558 4.1054160000000008 -0.035944789281212489 1.1406785000000002 0.30610850000000006
decision_type=2 2 2 2 2 2 2 2 2 2 2 2 2 2 2 2 2 2 2 2 2 2 2 2 2 2 2 2 2 2
left_child=3 5 15 -1 14 9 16 12 19 22 11 -8 29 25 20 -3 -7 26 -19 -4 -5 -22 -2 -16 -9 -10 -12 -14 -13 -6
right_child=1 2 8 4 7 6 10 24 13 -11 17 28 27 -15 23 -17 -18 18 -20 -21 21 -23 -24 -25 -26 -27 -28 -29 -30 -31
leaf_value=-0.0017060019990424303 -0.00070374908574232734 -0.00067425973351123577 0.0018660621409694093 -0.0013913962205127403 -0.00059472173459793705 -0.00092339346413991845 0.00042046341355964892 0.00050115440391371917 0.0024578284798447651 0.00064649644129146646 0.0011725743335459736 0.0006353554393898035 -0.0001225673051220269 0.0036709732765726442 -0.00090505035322116501 0.0012021305946579642 0.00023757186222539181 0.0027659114541617471 0.00019495206731603518 0.0027033891749611793 0.0016453543514075119 -0.00093632140812382537 0.00011356317027889744 -0.00024718490974344243 0.0013251919951468064 0.0032587194701000385 0.002086951138729253 0.00062797386069201992 0.0017864231862612029 -1.5365291254400107e-05
leaf_weight=3029 916 360 373 1309 917 162 384 206 271 366 249 77 238 902 1202 59 537 242 26 306 24 81 174 282 405 282 167 332 303 281
leaf_count=3029 916 360 373 1309 917 162 384 206 271 366 249 77 238 902 1202 59 537 242 26 306 24 81 174 282 405 282 167 332 303 281
internal_value=6.69166e-08 0.00128626 0.00244924 -0.000953077 -0.000520684 0.000461866 0.000955429 0.000112964 0.0030106 -0.000265264 0.00143187 0.000986717 -0.00021004 0.00336691 -0.00104118 -0.000407433 -3.01562e-05 0.0019274 0.00252039 0.00224523 -0.00131374 -0.000335705 -0.000572363 -0.000780737 0.00104913 0.00286856 0.00154246 0.000312869 0.00155604 -0.000459677
internal_weight=14462 6156 2553 8306 5277 3603 2147 2379 2134 1456 1448 764 1768 1455 2898 419 699 684 268 679 1414 105 1090 1484 611 553 416 570 380 1198
internal_count=14462 6156 2553 8306 5277 3603 2147 2379 2134 1456 1448 764 1768 1455 2898 419 699 684 268 679 1414 105 1090 1484 611 553 416 570 380 1198
is_linear=0
shrinkage=0.01


Tree=25
num_leaves=31
num_cat=0
split_feature=6 4 3 11 4 2 2 2 4 4 4 4 2 4 3 3 2 3 3 2 3 6 3 11 4 3 4 3 3 4
split_gain=173.787 55.9523 43.2515 28.2115 16.2114 15.2096 7.57576 7.07225 4.43556 3.26814 3.00147 2.88646 2.27803 2.15797 1.94997 1.91772 1.8453 1.90606 1.68531 1.28831 1.13515 1.03289 0.992894 1.17299 0.869342 0.8553 0.834037 0.695216 0.64575 0.551108
threshold=0.7014585000000001 -0.22887323943661969 -0.035951912868307824 0.0013755000000000002 0.22183098591549297 -0.086200834278846131 -0.086103340786339647 -0.086210828851732618 0.22183098591549297 0.2359154929577465 -0.24999999999999997 -0.31338028169014082 -0.086198176875302512 -0.32042253521126757 -0.035910769477446973 -0.035951912868307824 2.0104134676236018 -0.035651974148651976 -0.035387228329443222 -0.086203872707162552 -0.03561086476059349 4.3859710000000005 -0.035303530431423404 0.89444050000000008 -0.36267605633802813 -0.03590216676844879 1.7007042253521127 -0.035905584050086412 -0.034372397691478311 2.2218309859154934
decision_type=2 2 2 2 2 2 2 2 2 2 2 2 2 2 2 2 2 2 2 2 2 2 2 2 2 2 2 2 2 2
left_child=3 6 -3 -1 10 9 11 15 16 19 22 21 -12 24 -10 29 17 -7 27 -4 -15 28 -5 -24 -8 -11 -17 -13 -2 -6
right_child=1 2 5 4 7 8 13 -9 14 25 12 18 -14 20 -16 26 -18 -19 -20 -21 -22 -23 23 -25 -26 -27 -28 -29 -30 -31
leaf_value=-0.0016798140280086056 -0.00082053447358962188 -0.00070709110014208101 0.00068062535051456694 -0.0013369148278892424 -0.00061026120140334015 0.0020357975756695621 -0.00032512764089548521 0.0011351525676549345 0.0019472814990581875 0.001623110333140154 -0.00082479598748217212 -0.00068577602571750389 8.4293425409095904e-05 0.00074539824495377263 0.0035679953342603273 -9.8678099538046865e-05 0.00020527832615361722 0.0030611120441776103 0.0012331115441726742 0.0016546479200546735 0.0018871937014462226 6.2663497118668028e-05 -0.0010024483578673971 0.0013007360645584834 0.00070477000334211181 0.0025334208944174279 0.00057852688689899836 0.00020155896757743678 0.0001490448185575148 0.00017782451839862647
leaf_weight=3130 721 469 348 1354 673 349 105 586 83 173 1413 111 340 139 1112 399 35 402 145 229 251 205 75 31 355 295 331 429 74 100
leaf_count=3130 721 469 348 1354 673 349 105 586 83 173 1413 111 340 139 1112 399 35 402 145 229 251 205 75 31 355 295 331 429 74 100
internal_value=7.32207e-08 0.00129642 0.0021168 -0.000926871 -0.000482164 0.00255482 0.000164919 0.000203204 0.0030703 0.00157648 -0.000928075 -0.000222875 -0.00064791 0.000934775 0.00345644 -0.000159536 0.00248159 0.0025863 0.000276199 0.00106915 0.0014831 -0.000565734 -0.00126371 -0.000318859 0.000467492 0.00219947 0.000207051 1.72176e-05 -0.000729019 -0.000507006
internal_weight=14462 6030 3495 8432 5302 3026 2535 2089 1981 1045 3213 1685 1753 850 1195 1503 786 751 685 577 390 1000 1460 106 460 468 730 540 795 773
internal_count=14462 6030 3495 8432 5302 3026 2535 2089 1981 1045 3213 1685 1753 850 1195 1503 786 751 685 577 390 1000 1460 106 460 468 730 540 795 773
is_linear=0
shrinkage=0.01


Tree=26
num_leaves=31
num_cat=0
split_feature=6 4 10 11 4 4 10 10 4 6 4 6 10 4 4 6 0 4 11 10 4 11 6 11 10 11 10 0 4 6
split_gain=170.363 56.7202 39.3481 26.682 16.1578 12.4222 6.26886 5.84497 3.44046 3.04751 2.29203 2.13769 2.12064 2.07719 1.85306 1.73369 1.6297 1.54 1.47343 1.35643 1.07218 0.989817 0.791419 0.615508 0.672097 0.614677 0.938298 0.612071 0.57247 0.556103
threshold=0.69504150000000009 -0.03873239436619718 1.0000000180025095e-35 0.0013755000000000002 0.09507042253521128 -0.32042253521126757 1.0000000180025095e-35 1.0000000180025095e-35 0.86267605633802824 2.1324815000000004 1.7147887323943662 2.0371920000000006 0.010798500000000001 -0.24295774647887322 -0.2570422535211267 1.2785305000000002 -0.44090690221037204 -0.22887323943661969 1.3400750000000001 0.066330500000000014 -0.36267605633802813 1.7058870000000004 0.0096780000000000008 0.00046850000000000006 0.34910200000000008 1.7058870000000004 1.0000000180025095e-35 1.9730117709850832 2.2218309859154934 2.0371920000000006
decision_type=2 2 2 2 2 2 2 2 2 2 2 2 2 2 2 2 2 2 2 2 2 2 2 2 2 2 2 2 2 2
left_child=3 5 -3 -1 14 15 -7 28 -9 12 11 -4 -8 16 25 -2 -11 -14 27 -15 -17 29 -10 24 -12 -5 -27 -13 -6 -22
right_child=1 2 10 4 7 6 9 8 22 13 23 18 17 19 -16 20 -18 -19 -20 -21 21 -23 -24 -25 -26 26 -28 -29 -30 -31
leaf_value=-0.0016660158449675632 -0.0010331376793900891 -0.00066045004591690508 0.0020630536395770237 -0.0013210101062696184 -0.00060928823553211468 -0.00090296639544535642 0.0033278848168036947 -1.9542060398683056e-06 0.00046588817436109514 0.0014832618543480075 0.0020855713934208008 0.0029483953834302944 -8.3842511223784782e-05 0.003266751124774139 -0.00075668706579171509 -0.00061049082923768708 0.00053423503702313606 0.00090855548108032208 0.0016615185987866299 0.0016475540996142527 -0.0002999373104590935 -0.00059054290942131885 0.0011766026840847948 0.0034311574662147658 0.0033555997439152956 -0.0012708950292890089 0.0011452761434475353 0.003807462237148126 0.00018217671160520774 0.00037952430917767235
leaf_weight=3115 242 360 449 1296 801 170 26 701 229 366 89 643 311 59 1458 312 367 311 86 537 151 181 538 725 93 41 26 108 101 570
leaf_count=3115 242 360 449 1296 801 170 26 701 229 366 89 643 311 59 1458 312 367 311 86 537 151 181 538 725 93 41 26 108 101 570
internal_value=8.0621e-08 0.00126086 0.00240124 -0.000934232 -0.000494889 0.000452494 0.000936117 0.000113418 0.000503028 0.0010948 0.00290431 0.00262831 0.000529897 0.00136943 -0.00100628 -0.000259981 0.0010096 0.000410815 0.00293006 0.00181004 -0.000104963 6.88382e-05 0.0009658 0.00329419 0.00274152 -0.00127247 -0.000318064 0.00307376 -0.000519546 0.000235815
internal_weight=14462 6156 2553 8306 5191 3603 2147 2370 1468 1977 2193 1286 648 1329 2821 1456 733 622 837 596 1214 902 767 907 182 1363 67 751 902 721
internal_count=14462 6156 2553 8306 5191 3603 2147 2370 1468 1977 2193 1286 648 1329 2821 1456 733 622 837 596 1214 902 767 907 182 1363 67 751 902 721
is_linear=0
shrinkage=0.01


Tree=27
num_leaves=31
num_cat=0
split_feature=6 4 3 11 4 4 2 2 2 2 3 4 4 4 3 3 3 4 2 2 4 3 11 6 4 3 0 6 4 4
split_gain=166.975 55.5926 38.6344 26.1509 15.839 12.1758 9.62024 6.60054 5.50503 3.89566 2.99533 2.44481 2.33988 2.01605 1.90679 1.66588 1.57544 1.47506 1.38375 1.29215 1.07245 0.993588 1.16937 0.941476 0.925986 0.782596 0.765237 0.697185 0.528567 0.522056
threshold=0.69504150000000009 -0.03873239436619718 -0.035944789281212489 0.0013755000000000002 0.22183098591549297 -0.32042253521126757 -0.086203872707162552 -0.086209001886796366 -0.086194366627574528 -0.085990059190426946 -0.035660338838033601 -0.2570422535211267 -0.22183098591549291 0.36267605633802824 -0.035944789281212489 -0.035951912868307824 -0.035939076810415284 -0.22887323943661969 -0.086198176875302512 2.0104134676236018 1.7147887323943662 -0.035303530431423404 0.40736350000000005 4.5919130000000008 1.1514084507042257 -0.035667054391500558 -0.4048931170267846 1.1406785000000002 2.2218309859154934 -0.22887323943661969
decision_type=2 2 2 2 2 2 2 2 2 2 2 2 2 2 2 2 2 2 2 2 2 2 2 2 2 2 2 2 2 2
left_child=3 5 15 -1 11 9 16 14 20 23 12 21 -8 25 28 -3 -7 26 -13 -19 -4 -5 -23 -2 -16 -10 -12 -14 -6 -18
right_child=1 2 8 4 7 6 10 -9 13 -11 17 18 27 -15 24 -17 29 19 -20 -21 -22 22 -24 -25 -26 -27 -28 -29 -30 -31
leaf_value=-0.0016493562822469964 -0.00068584539394974829 -0.00065384738669495106 0.0018041246833643671 -0.0013375868980681296 -0.00058368913719981323 -0.00081171643404450507 0.00040766346037789087 0.0011299146021309301 0.0023844570424977987 0.00063386211978878697 0.0018760667816628848 -0.00082033208833848421 0.0006303407339311323 0.0035668326024717242 -0.00011424280201733275 0.0011533595781691387 -7.4797398326536274e-05 0.0027592254970574474 -6.9483151992423922e-05 0.00026571935653315541 0.0026204926395233218 -0.0010860053951600392 0.0011344308656875118 0.00011172661888517444 0.00059943599203706008 0.0031667517001144076 0.0010070681481825672 0.0017378920886402924 0.00017611627444393652 0.00055661435184653052
leaf_weight=3115 916 360 373 1259 703 188 383 546 271 366 262 1451 74 902 384 59 246 217 299 24 306 68 36 174 342 282 177 302 103 274
leaf_count=3115 916 360 373 1259 703 188 383 546 271 366 262 1451 74 902 384 59 246 217 299 24 306 68 36 174 342 282 177 302 103 274
internal_value=8.42331e-08 0.00124827 0.00237726 -0.000924891 -0.00048994 0.000447971 0.000926775 0.000185746 0.00292238 -0.000257396 0.00139629 -0.000941289 0.000961535 0.00327085 -0.000150152 -0.000396771 -2.61595e-05 0.00187987 -0.000692627 0.00251527 0.00217384 -0.00125975 -0.000307435 -0.000557611 0.000220612 0.00278569 0.00152828 0.0015228 -0.000485342 0.000256028
internal_weight=14462 6156 2553 8306 5191 3603 2147 2078 2134 1456 1439 3113 759 1455 1532 419 708 680 1750 241 679 1363 104 1090 726 553 439 376 806 520
internal_count=14462 6156 2553 8306 5191 3603 2147 2078 2134 1456 1439 3113 759 1455 1532 419 708 680 1750 241 679 1363 104 1090 726 553 439 376 806 520
is_linear=0
shrinkage=0.01


Tree=28
num_leaves=31
num_cat=0
split_feature=2 6 11 0 0 6 3 2 0 0 0 2 0 2 3 2 3 0 0 3 0 3 3 6 0 3 3 0 0 2
split_gain=163.705 33.3242 28.994 13.4398 11.1828 8.82374 6.39382 4.36845 3.38666 5.40696 3.12835 2.75133 2.49461 2.46685 2.45366 2.24477 2.39877 1.77583 1.69103 1.58512 1.48416 1.13036 1.0934 0.935947 0.827598 0.635522 0.605773 0.541512 0.522184 0.510943
threshold=-0.086210467366691759 0.82235750000000007 1.0000000180025095e-35 -0.58818439565606073 -0.17068388023433842 0.7014585000000001 -0.035948104554443014 1.0000000180025095e-35 -0.61544807522426703 -0.073747994903644989 -0.54825368206205105 -0.086114077869039768 -0.61544807522426703 -0.086152834927339536 -0.035910769477446973 1.0000000180025095e-35 -0.034715502968735677 1.9576121762302681 -0.087869626670079845 -0.030919175091763017 0.43875457198749784 -0.035623258782055293 -0.026523411811909398 4.7853120000000002 -0.25867895071515074 -0.03590216676844879 -0.03585303271903232 -0.28564214008730021 -1.4818169046602805 -0.086236943703468238
decision_type=2 2 2 2 2 2 2 2 2 2 2 2 2 2 2 2 2 2 2 2 2 2 2 2 2 2 2 2 2 2
left_child=2 7 -1 11 14 12 -7 10 -8 -10 -2 -3 -4 17 27 16 -15 20 25 -16 -6 24 -20 28 -14 -12 -27 -5 -13 -26
right_child=1 3 5 4 13 6 8 -9 9 -11 18 23 21 15 19 -17 -18 -19 22 -21 -22 -23 -24 -25 29 26 -28 -29 -30 -31
leaf_value=-0.0016387439235995001 -0.00066034105248159042 7.554633952238476e-05 -0.0013167268515943316 0.0017216332454440108 0.0014620921631282281 -0.00074106007916360773 -0.00036773859006732779 -0.0013656583814350264 0.0014967012945659632 3.0351151063051887e-05 0.000152477937751923 0.00024665222425726948 -0.00046475354575779826 0.0017699147426316006 0.0027848855200447572 -0.00011082919644717831 0.0029901790911342346 0.0018482721338474637 -5.2462050145633719e-05 0.0036865069627854937 0.00037550415264400283 0.00035964848685870072 0.0018858209185278303 0.0019174808909391541 -0.0013184466977991 0.0012859830255047423 0.0006577505082461108 -2.5285872061388186e-05 0.0011473560643157322 -0.00072867439025401054
leaf_weight=3017 262 348 572 85 229 598 335 169 523 487 118 84 1532 580 988 47 229 288 444 256 286 117 31 143 168 306 329 21 326 1544
leaf_count=3017 262 348 572 85 229 598 335 169 523 487 118 84 1532 580 988 47 229 288 444 256 286 117 31 143 168 306 329 21 326 1544
internal_value=9.03124e-08 0.00134462 -0.000841778 0.00184851 0.00216951 -0.000432389 0.000118497 0.000156383 0.000501434 0.000790722 0.000329768 0.000775259 -0.00070479 0.00161801 0.00284634 0.00199341 0.00211689 0.00121639 0.000541864 0.00297151 0.000860798 -0.000600313 7.23019e-05 0.00121368 -0.000635254 0.000836692 0.000962219 0.00136642 0.000965365 -0.000787207
internal_weight=14462 5569 8893 3910 3009 5876 1943 1659 1345 1010 1490 901 3933 1659 1350 856 809 803 1228 1244 515 3361 475 553 3244 753 635 106 410 1712
internal_count=14462 5569 8893 3910 3009 5876 1943 1659 1345 1010 1490 901 3933 1659 1350 856 809 803 1228 1244 515 3361 475 553 3244 753 635 106 410 1712
is_linear=0
shrinkage=0.01


Tree=29
num_leaves=31
num_cat=0
split_feature=6 4 10 6 4 4 2 2 2 2 4 4 4 4 2 10 6 4 10 6 2 0 4 10 10 6 10 4 2 4
split_gain=160.46 53.9745 37.1785 24.4321 15.9819 11.8184 9.26144 6.5506 6.46029 3.73302 2.67812 2.12999 1.94182 1.85028 1.66862 1.53261 1.4015 1.18026 1.13408 0.922652 0.90158 0.849767 0.83523 0.679602 0.674101 0.655679 0.599096 0.588907 0.571322 0.50194
threshold=0.69504150000000009 -0.03873239436619718 1.0000000180025095e-35 1.0000000180025095e-35 0.09507042253521128 -0.32042253521126757 -0.086203872707162552 -0.086209001886796366 -0.086194366627574528 -0.085990059190426946 -0.24295774647887322 1.7007042253521127 0.36267605633802824 -0.2570422535211267 -0.086024859453009181 0.0016960000000000002 2.0371920000000006 1.7147887323943662 0.63252800000000009 4.5919130000000008 -0.086201850344906933 -0.35826506105368661 1.0598591549295777 1.0000000180025095e-35 0.30610850000000006 2.0371920000000006 0.12467600000000002 -0.22887323943661969 1.0000000180025095e-35 -0.36267605633802813
decision_type=2 2 2 2 2 2 2 2 2 2 2 2 2 2 2 2 2 2 2 2 2 2 2 2 2 2 2 2 2 2
left_child=3 5 -3 -1 13 9 15 11 17 19 14 24 25 -5 26 -7 28 -4 -18 -2 -15 -16 -9 -13 -6 -10 -8 -17 -12 -11
right_child=1 2 8 4 7 6 10 22 12 29 16 23 -14 20 21 27 18 -19 -20 -21 -22 -23 -24 -25 -26 -27 -28 -29 -30 -31
leaf_value=-0.0016226462227146039 -0.00068064672391421463 -0.00063990219825635233 0.0016911387728812664 -0.0012540270973167909 -0.00056751506072096362 -0.00088322314843397544 0.0012573977974995965 0.00051405749833447129 0.0022028150832166041 -0.00015717212576419115 0.0013879106108089026 -0.00011662531985937544 0.0035033412501273746 -0.00086538677961674724 0.0018310114336312958 -0.00010995030284868033 0.0029611763642165955 0.0025115941318659767 0.0018276820628079819 0.00010884996422013885 -0.0002318540596983525 0.00030255822662807207 0.0012893562131399065 0.00058597916131473764 -4.0873824950898666e-06 0.0029781876381715011 0.00042670540657572002 0.00054449748647460259 0 0.00078842331221578145
leaf_weight=3029 916 360 409 1414 917 162 115 226 174 67 180 226 902 1202 235 266 130 328 314 174 282 45 385 344 281 380 386 280 34 299
leaf_count=3029 916 360 409 1414 917 162 115 226 174 67 180 226 902 1202 235 266 130 328 314 174 282 45 385 344 281 380 386 280 34 299
internal_value=9.47347e-08 0.00122368 0.00233612 -0.000906654 -0.000495461 0.000435118 0.000906847 0.000111559 0.00282513 -0.000259816 0.00136753 -0.000196454 0.00321261 -0.000994102 0.000968626 -2.81239e-05 0.00183925 0.00205793 0.0021624 -0.000553701 -0.000745696 0.00158913 0.00100435 0.000305677 -0.000436205 0.00273691 0.000619592 0.000223871 0.00116342 0.000612595
internal_weight=14462 6156 2553 8306 5277 3603 2147 2379 2193 1456 1439 1768 1456 2898 781 708 658 737 444 1090 1484 280 611 570 1198 554 501 546 214 366
internal_count=14462 6156 2553 8306 5277 3603 2147 2379 2193 1456 1439 1768 1456 2898 781 708 658 737 444 1090 1484 280 611 570 1198 554 501 546 214 366
is_linear=0
shrinkage=0.01


Tree=30
num_leaves=31
num_cat=0
split_feature=6 4 3 11 4 4 3 3 3 4 4 3 3 4 6 3 6 4 10 10 4 6 6 6 6 6 3 3 10 4
split_gain=157.296 51.1624 39.2509 25.5146 14.9101 10.8547 6.50974 5.67681 5.59423 4.03838 3.48982 1.97085 1.86286 1.66613 1.62718 1.51387 1.48686 1.4512 1.44464 1.00747 0.974548 0.843992 0.834572 0.787721 0.738531 0.685786 0.681059 0.641781 0.629843 0.584098
threshold=0.7014585000000001 -0.22887323943661969 -0.035951912868307824 0.0013755000000000002 -0.02464788732394366 -0.052816901408450696 -0.035520366302100793 -0.03590216676844879 -0.035948104554443014 0.86267605633802824 -0.34859154929577457 -0.035901962751634604 -0.035660338838033601 0.49647887323943668 1.3873020000000003 -0.035303530431423404 2.0371920000000006 -0.2711267605633802 0.0073445000000000012 0.57010500000000019 -0.35563380281690132 0.45828400000000008 1.9415940000000003 0.67502550000000017 0.0096780000000000008 2.0371920000000006 -0.035725828235387322 0.028838165850585126 0.019564500000000002 2.2218309859154934
decision_type=2 2 2 2 2 2 2 2 2 2 2 2 2 2 2 2 2 2 2 2 2 2 2 2 2 2 2 2 2 2
left_child=3 6 -3 -1 15 12 11 -7 29 21 -8 -2 19 16 -13 17 -9 -5 -17 -4 -16 -10 28 -19 -11 -14 -15 -20 -12 -6
right_child=1 2 5 4 8 7 10 13 9 24 22 14 25 26 20 18 -18 23 27 -21 -22 -23 -24 -25 -26 -27 -28 -29 -30 -31
leaf_value=-0.001597822912057367 -0.00076459933251633546 -0.00067215436861322805 0.00069140541289011584 -0.0013131518941080647 -0.00059751002730586155 0.0016062421577623248 -6.9050501006358807e-05 0.0019967869318966536 -0.00012210306911095411 0.00046221560452170616 0.002002093504468741 -0.00077645489430865956 0.0014425849977653307 0.0029184383352416983 -0.00042070299810099954 0.0016878842568628677 0.002973451655678523 -0.0008732660900320063 9.5208650800696415e-06 0.0015505679409133256 0.00033789522823623243 0.0010198359528939094 0.0014886785812518041 0.00038213223410285497 0.0011538609494286794 0.0024895785429144084 0.0034673043482541677 -0.0013804178986426131 0.00013983894639065029 0.00018558927569234176
leaf_weight=3130 463 469 273 1196 928 335 272 243 835 224 23 220 103 385 215 36 487 1182 78 286 783 70 467 51 542 190 724 56 92 104
leaf_count=3130 463 469 273 1196 928 335 272 243 835 224 23 220 103 385 215 36 487 1182 78 286 783 70 467 51 542 190 724 56 92 104
internal_value=9.79926e-08 0.00123341 0.00201789 -0.000881767 -0.000458838 0.00243516 0.000151406 0.00281064 6.0813e-05 0.000418654 0.000862546 -0.00020931 0.00147569 0.00302939 9.97304e-07 -0.000999649 0.00265003 -0.00106353 -8.09244e-05 0.00113296 0.000173442 -3.25685e-05 0.00129959 -0.000820502 0.000952996 0.00212555 0.00327794 -0.000564488 0.000522394 -0.000517614
internal_weight=14462 6030 3495 8432 5302 3026 2535 2174 2703 1671 854 1681 852 1839 1218 2599 730 2429 170 559 998 905 582 1233 766 293 1109 134 115 1032
internal_count=14462 6030 3495 8432 5302 3026 2535 2174 2703 1671 854 1681 852 1839 1218 2599 730 2429 170 559 998 905 582 1233 766 293 1109 134 115 1032
is_linear=0
shrinkage=0.01


Tree=31
num_leaves=31
num_cat=0
split_feature=2 4 6 6 4 6 4 6 3 4 3 4 6 4 3 3 2 4 2 3 4 4 4 2 3 3 4 10 6 3
split_gain=154.616 48.7369 29.1362 22.8606 15.9448 11.9369 9.62723 5.86931 5.61933 3.95789 3.64345 3.75878 3.30205 2.42136 2.19047 1.99492 1.92177 1.6593 1.38541 2.3438 1.13795 1.11951 1.05334 0.977772 1.33821 0.909442 0.746103 0.69115 0.522459 0.457494
threshold=-0.086204937622553199 -0.052816901408450696 1.0000000180025095e-35 0.7014585000000001 1.6161971830985917 0.84649400000000008 -0.32042253521126757 0.69504150000000009 -0.035939076810415284 -0.066901408450704206 -0.035914441780102321 -0.066901408450704206 0.69504150000000009 -0.24295774647887322 -0.035910769477446973 -0.035621133606907517 -0.085828748933409735 0.36267605633802824 1.0000000180025095e-35 -0.027189543711628003 0.29929577464788737 -0.24999999999999997 -0.26408450704225345 1.0000000180025095e-35 -0.035651974148651976 -0.035948104554443014 -0.29929577464788726 0.31350100000000009 4.3859710000000005 -0.035627458128147285
decision_type=2 2 2 2 2 2 2 2 2 2 2 2 2 2 2 2 2 2 2 2 2 2 2 2 2 2 2 2 2 2
left_child=2 5 -1 20 7 18 16 9 25 26 -9 21 -10 15 -5 -8 -7 29 19 22 -3 -12 -2 24 -15 -6 -4 -11 -17 -16
right_child=1 3 4 14 8 6 13 10 12 27 11 -13 -14 23 17 28 -18 -19 -20 -21 -22 -23 -24 -25 -26 -27 -28 -29 -30 -31
leaf_value=-0.001590921643175078 -0.00094168366002529442 0.00022738854873833374 -0.0014036234069260097 0.001718321297087947 -0.00021782147278705307 -0.00022368187566439079 0.00048270469130184826 -0.00061820128058030581 0.00068441308695946039 -0.00059193594338833287 -0.00041087337183919769 0.0015318088917376446 0.0024112452749993712 0.0016077036910965947 0.0024039336685155459 0.0012222867324441795 0.00083894754979313565 0.0034289813905233257 -0.0014698635632977878 0.0016293431432270436 0.0011507975057749376 0.00038206970585797002 -9.2514318905960967e-05 8.8535509041314612e-06 0.0026357346461370538 0.00065675891179675194 -0.00099244013977058121 -8.630672197747212e-05 0.0020018401256052779 0.0030076524335742754
leaf_weight=3022 312 185 768 115 348 629 347 831 211 1169 378 194 238 349 261 229 233 967 137 54 508 336 280 27 209 180 1121 358 152 314
leaf_count=3022 312 185 768 115 348 629 347 831 211 1169 378 194 238 349 261 229 233 967 137 54 508 336 280 27 209 180 1121 358 152 314
internal_value=1.03884e-07 0.00135801 -0.000787183 0.00243314 -0.000390899 0.000503475 0.000884794 -0.000613002 0.000779916 -0.000853806 -0.000139383 0.00029775 0.00160231 0.00142386 0.00307122 0.00103564 6.24526e-05 0.00317135 -0.000554442 -0.000358559 0.0009058 -3.63221e-05 -0.000541822 0.00190501 0.00199495 7.85053e-05 -0.00116021 -0.000474061 0.00153636 0.00273582
internal_weight=14462 5308 9154 2350 6132 2958 2175 5155 977 3416 1739 908 449 1313 1657 728 862 1542 783 646 693 714 592 585 558 528 1889 1527 381 575
internal_count=14462 5308 9154 2350 6132 2958 2175 5155 977 3416 1739 908 449 1313 1657 728 862 1542 783 646 693 714 592 585 558 528 1889 1527 381 575
is_linear=0
shrinkage=0.01


Tree=32
num_leaves=31
num_cat=0
split_feature=6 4 3 11 4 4 3 3 3 3 3 4 4 4 3 3 6 4 4 6 3 10 10 3 6 10 4 3 6 3
split_gain=151.135 50.8524 35.1144 23.6481 14.5558 11.199 7.26758 5.34194 4.0125 3.59428 2.60438 2.22838 2.17615 2.10261 1.50779 1.28466 1.22211 1.08581 1.05972 1.0835 0.925548 1.09447 0.91769 0.856325 0.84935 0.971533 0.846489 0.820685 0.681978 0.655394
threshold=0.69504150000000009 -0.03873239436619718 -0.035944789281212489 0.0013755000000000002 0.22183098591549297 -0.32042253521126757 -0.035660338838033601 -0.035948104554443014 -0.03572783440072682 -0.035926733793157022 -0.034792502314689729 -0.24999999999999997 0.86267605633802824 -0.21478873239436616 -0.035951912868307824 -0.03590216676844879 1.2785305000000002 0.1654929577464789 -0.19366197183098588 2.0371920000000006 -0.035303530431423404 0.0073445000000000012 0.62735050000000003 -0.035558857474377231 4.3859710000000005 0.015423000000000001 0.49647887323943668 -0.035923248505914683 0.0096780000000000008 0.028838165850585126
decision_type=2 2 2 2 2 2 2 2 2 2 2 2 2 2 2 2 2 2 2 2 2 2 2 2 2 2 2 2 2 2
left_child=3 5 14 -1 11 10 9 -6 15 -7 16 20 -9 -11 -3 -4 -2 -10 24 -20 -5 -22 -15 -13 25 -8 -17 -18 -14 -25
right_child=1 2 8 4 7 6 18 12 17 13 -12 23 28 22 -16 26 27 -19 19 -21 21 -23 -24 29 -26 -27 -28 -29 -30 -31
leaf_value=-0.0015688313260229132 -0.0011375954479940274 -0.00062179466211019756 0.0016706330810094326 -0.0012656681931119604 -0.00045995550858242656 -0.00057868787751313771 0.0033248118767097812 7.9872616381747357e-05 0.0025156983506795885 0.00026944704072592494 0.00071038291606147664 -0.00072061414469480264 0.00045071236931927517 0.00073120757768220523 0.0010973152919796921 0.002001944911625292 -0.00084078009330844719 0.0032729277667381878 0.0013312849832126177 0.0028059342215523762 0.0015783005094936278 -0.00083917957608645904 0.0015679516435496868 0.00055150357157521409 0.0020375878096070815 0.0010392467631728229 0.0028444285306631523 -0.00014463987069764827 0.0011164763684954507 -0.00092815678782778388
